{"learner":{"attributes":{"scikit_learn":"{\"_estimator_type\": \"classifier\"}"},"feature_names":["N","P","K","temperature","humidity","ph","rainfall"],"feature_types":["int","int","int","float","float","float","float"],"gradient_booster":{"model":{"gbtree_model_param":{"num_parallel_tree":"1","num_trees":"2200"},"iteration_indptr":[0,22,44,66,88,110,132,154,176,198,220,242,264,286,308,330,352,374,396,418,440,462,484,506,528,550,572,594,616,638,660,682,704,726,748,770,792,814,836,858,880,902,924,946,968,990,1012,1034,1056,1078,1100,1122,1144,1166,1188,1210,1232,1254,1276,1298,1320,1342,1364,1386,1408,1430,1452,1474,1496,1518,1540,1562,1584,1606,1628,1650,1672,1694,1716,1738,1760,1782,1804,1826,1848,1870,1892,1914,1936,1958,1980,2002,2024,2046,2068,2090,2112,2134,2156,2178,2200],"tree_info":[0,1,2,3,4,5,6,7,8,9,10,11,12,13,14,15,16,17,18,19,20,21,0,1,2,3,4,5,6,7,8,9,10,11,12,13,14,15,16,17,18,19,20,21,0,1,2,3,4,5,6,7,8,9,10,11,12,13,14,15,16,17,18,19,20,21,0,1,2,3,4,5,6,7,8,9,10,11,12,13,14,15,16,17,18,19,20,21,0,1,2,3,4,5,6,7,8,9,10,11,12,13,14,15,16,17,18,19,20,21,0,1,2,3,4,5,6,7,8,9,10,11,12,13,14,15,16,17,18,19,20,21,0,1,2,3,4,5,6,7,8,9,10,11,12,13,14,15,16,17,18,19,20,21,0,1,2,3,4,5,6,7,8,9,10,11,12,13,14,15,16,17,18,19,20,21,0,1,2,3,4,5,6,7,8,9,10,11,12,13,14,15,16,17,18,19,20,21,0,1,2,3,4,5,6,7,8,9,10,11,12,13,14,15,16,17,18,19,20,21,0,1,2,3,4,5,6,7,8,9,10,11,12,13,14,15,16,17,18,19,20,21,0,1,2,3,4,5,6,7,8,9,10,11,12,13,14,15,16,17,18,19,20,21,0,1,2,3,4,5,6,7,8,9,10,11,12,13,14,15,16,17,18,19,20,21,0,1,2,3,4,5,6,7,8,9,10,11,12,13,14,15,16,17,18,19,20,21,0,1,2,3,4,5,6,7,8,9,10,11,12,13,14,15,16,17,18,19,20,21,0,1,2,3,4,5,6,7,8,9,10,11,12,13,14,15,16,17,18,19,20,21,0,1,2,3,4,5,6,7,8,9,10,11,12,13,14,15,16,17,18,19,20,21,0,1,2,3,4,5,6,7,8,9,10,11,12,13,14,15,16,17,18,19,20,21,0,1,2,3,4,5,6,7,8,9,10,11,12,13,14,15,16,17,18,19,20,21,0,1,2,3,4,5,6,7,8,9,10,11,12,13,14,15,16,17,18,19,20,21,0,1,2,3,4,5,6,7,8,9,10,11,12,13,14,15,16,17,18,19,20,21,0,1,2,3,4,5,6,7,8,9,10,11,12,13,14,15,16,17,18,19,20,21,0,1,2,3,4,5,6,7,8,9,10,11,12,13,14,15,16,17,18,19,20,21,0,1,2,3,4,5,6,7,8,9,10,11,12,13,14,15,16,17,18,19,20,21,0,1,2,3,4,5,6,7,8,9,10,11,12,13,14,15,16,17,18,19,20,21,0,1,2,3,4,5,6,7,8,9,10,11,12,13,14,15,16,17,18,19,20,21,0,1,2,3,4,5,6,7,8,9,10,11,12,13,14,15,16,17,18,19,20,21,0,1,2,3,4,5,6,7,8,9,10,11,12,13,14,15,16,17,18,19,20,21,0,1,2,3,4,5,6,7,8,9,10,11,12,13,14,15,16,17,18,19,20,21,0,1,2,3,4,5,6,7,8,9,10,11,12,13,14,15,16,17,18,19,20,21,0,1,2,3,4,5,6,7,8,9,10,11,12,13,14,15,16,17,18,19,20,21,0,1,2,3,4,5,6,7,8,9,10,11,12,13,14,15,16,17,18,19,20,21,0,1,2,3,4,5,6,7,8,9,10,11,12,13,14,15,16,17,18,19,20,21,0,1,2,3,4,5,6,7,8,9,10,11,12,13,14,15,16,17,18,19,20,21,0,1,2,3,4,5,6,7,8,9,10,11,12,13,14,15,16,17,18,19,20,21,0,1,2,3,4,5,6,7,8,9,10,11,12,13,14,15,16,17,18,19,20,21,0,1,2,3,4,5,6,7,8,9,10,11,12,13,14,15,16,17,18,19,20,21,0,1,2,3,4,5,6,7,8,9,10,11,12,13,14,15,16,17,18,19,20,21,0,1,2,3,4,5,6,7,8,9,10,11,12,13,14,15,16,17,18,19,20,21,0,1,2,3,4,5,6,7,8,9,10,11,12,13,14,15,16,17,18,19,20,21,0,1,2,3,4,5,6,7,8,9,10,11,12,13,14,15,16,17,18,19,20,21,0,1,2,3,4,5,6,7,8,9,10,11,12,13,14,15,16,17,18,19,20,21,0,1,2,3,4,5,6,7,8,9,10,11,12,13,14,15,16,17,18,19,20,21,0,1,2,3,4,5,6,7,8,9,10,11,12,13,14,15,16,17,18,19,20,21,0,1,2,3,4,5,6,7,8,9,10,11,12,13,14,15,16,17,18,19,20,21,0,1,2,3,4,5,6,7,8,9,10,11,12,13,14,15,16,17,18,19,20,21,0,1,2,3,4,5,6,7,8,9,10,11,12,13,14,15,16,17,18,19,20,21,0,1,2,3,4,5,6,7,8,9,10,11,12,13,14,15,16,17,18,19,20,21,0,1,2,3,4,5,6,7,8,9,10,11,12,13,14,15,16,17,18,19,20,21,0,1,2,3,4,5,6,7,8,9,10,11,12,13,14,15,16,17,18,19,20,21,0,1,2,3,4,5,6,7,8,9,10,11,12,13,14,15,16,17,18,19,20,21,0,1,2,3,4,5,6,7,8,9,10,11,12,13,14,15,16,17,18,19,20,21,0,1,2,3,4,5,6,7,8,9,10,11,12,13,14,15,16,17,18,19,20,21,0,1,2,3,4,5,6,7,8,9,10,11,12,13,14,15,16,17,18,19,20,21,0,1,2,3,4,5,6,7,8,9,10,11,12,13,14,15,16,17,18,19,20,21,0,1,2,3,4,5,6,7,8,9,10,11,12,13,14,15,16,17,18,19,20,21,0,1,2,3,4,5,6,7,8,9,10,11,12,13,14,15,16,17,18,19,20,21,0,1,2,3,4,5,6,7,8,9,10,11,12,13,14,15,16,17,18,19,20,21,0,1,2,3,4,5,6,7,8,9,10,11,12,13,14,15,16,17,18,19,20,21,0,1,2,3,4,5,6,7,8,9,10,11,12,13,14,15,16,17,18,19,20,21,0,1,2,3,4,5,6,7,8,9,10,11,12,13,14,15,16,17,18,19,20,21,0,1,2,3,4,5,6,7,8,9,10,11,12,13,14,15,16,17,18,19,20,21,0,1,2,3,4,5,6,7,8,9,10,11,12,13,14,15,16,17,18,19,20,21,0,1,2,3,4,5,6,7,8,9,10,11,12,13,14,15,16,17,18,19,20,21,0,1,2,3,4,5,6,7,8,9,10,11,12,13,14,15,16,17,18,19,20,21,0,1,2,3,4,5,6,7,8,9,10,11,12,13,14,15,16,17,18,19,20,21,0,1,2,3,4,5,6,7,8,9,10,11,12,13,14,15,16,17,18,19,20,21,0,1,2,3,4,5,6,7,8,9,10,11,12,13,14,15,16,17,18,19,20,21,0,1,2,3,4,5,6,7,8,9,10,11,12,13,14,15,16,17,18,19,20,21,0,1,2,3,4,5,6,7,8,9,10,11,12,13,14,15,16,17,18,19,20,21,0,1,2,3,4,5,6,7,8,9,10,11,12,13,14,15,16,17,18,19,20,21,0,1,2,3,4,5,6,7,8,9,10,11,12,13,14,15,16,17,18,19,20,21,0,1,2,3,4,5,6,7,8,9,10,11,12,13,14,15,16,17,18,19,20,21,0,1,2,3,4,5,6,7,8,9,10,11,12,13,14,15,16,17,18,19,20,21,0,1,2,3,4,5,6,7,8,9,10,11,12,13,14,15,16,17,18,19,20,21,0,1,2,3,4,5,6,7,8,9,10,11,12,13,14,15,16,17,18,19,20,21,0,1,2,3,4,5,6,7,8,9,10,11,12,13,14,15,16,17,18,19,20,21,0,1,2,3,4,5,6,7,8,9,10,11,12,13,14,15,16,17,18,19,20,21,0,1,2,3,4,5,6,7,8,9,10,11,12,13,14,15,16,17,18,19,20,21,0,1,2,3,4,5,6,7,8,9,10,11,12,13,14,15,16,17,18,19,20,21,0,1,2,3,4,5,6,7,8,9,10,11,12,13,14,15,16,17,18,19,20,21,0,1,2,3,4,5,6,7,8,9,10,11,12,13,14,15,16,17,18,19,20,21,0,1,2,3,4,5,6,7,8,9,10,11,12,13,14,15,16,17,18,19,20,21,0,1,2,3,4,5,6,7,8,9,10,11,12,13,14,15,16,17,18,19,20,21,0,1,2,3,4,5,6,7,8,9,10,11,12,13,14,15,16,17,18,19,20,21,0,1,2,3,4,5,6,7,8,9,10,11,12,13,14,15,16,17,18,19,20,21,0,1,2,3,4,5,6,7,8,9,10,11,12,13,14,15,16,17,18,19,20,21,0,1,2,3,4,5,6,7,8,9,10,11,12,13,14,15,16,17,18,19,20,21,0,1,2,3,4,5,6,7,8,9,10,11,12,13,14,15,16,17,18,19,20,21,0,1,2,3,4,5,6,7,8,9,10,11,12,13,14,15,16,17,18,19,20,21,0,1,2,3,4,5,6,7,8,9,10,11,12,13,14,15,16,17,18,19,20,21,0,1,2,3,4,5,6,7,8,9,10,11,12,13,14,15,16,17,18,19,20,21,0,1,2,3,4,5,6,7,8,9,10,11,12,13,14,15,16,17,18,19,20,21,0,1,2,3,4,5,6,7,8,9,10,11,12,13,14,15,16,17,18,19,20,21,0,1,2,3,4,5,6,7,8,9,10,11,12,13,14,15,16,17,18,19,20,21,0,1,2,3,4,5,6,7,8,9,10,11,12,13,14,15,16,17,18,19,20,21,0,1,2,3,4,5,6,7,8,9,10,11,12,13,14,15,16,17,18,19,20,21,0,1,2,3,4,5,6,7,8,9,10,11,12,13,14,15,16,17,18,19,20,21,0,1,2,3,4,5,6,7,8,9,10,11,12,13,14,15,16,17,18,19,20,21,0,1,2,3,4,5,6,7,8,9,10,11,12,13,14,15,16,17,18,19,20,21],"trees":[{"base_weights":[-1.9515103E-2,-5.2005686E-2,4.5950885E0,-4.6191406E-2,9.5680475E-1],"categories":[],"categories_nodes":[],"categories_segments":[],"categories_sizes":[],"default_left":[0,0,0,0,0],"id":0,"left_children":[1,-1,3,-1,-1],"loss_changes":[3.5746927E2,0E0,3.8528073E2,0E0,0E0],"parents":[2147483647,0,0,2,2],"right_children":[2,-1,4,-1,-1],"split_conditions":[1.2E2,-5.2005686E-2,8.4134186E1,-4.6191406E-2,9.5680475E-1],"split_indices":[1,0,4,0,0],"split_type":[0,0,0,0,0],"sum_hessian":[1.5272728E2,1.3858264E2,1.4144629E1,7.46281E0,6.681818E0],"tree_param":{"num_deleted":"0","num_feature":"7","num_nodes":"5","size_leaf_vector":"1"}},{"base_weights":[-6.5050498E-3,-5.1934328E-2,1.5998675E0,-5.0668653E-2,9.599684E-1],"categories":[],"categories_nodes":[],"categories_segments":[],"categories_sizes":[],"default_left":[0,0,0,0,0],"id":1,"left_children":[1,-1,3,-1,-1],"loss_changes":[1.27472824E2,0E0,6.3591046E2,0E0,0E0],"parents":[2147483647,0,0,2,2],"right_children":[2,-1,4,-1,-1],"split_conditions":[7E1,-5.1934328E-2,6.9E1,-5.0668653E-2,9.599684E-1],"split_indices":[1,0,0,0,0],"split_type":[0,0,0,0,0],"sum_hessian":[1.5272728E2,1.1628099E2,3.644628E1,2.959091E1,6.855372E0],"tree_param":{"num_deleted":"0","num_feature":"7","num_nodes":"5","size_leaf_vector":"1"}},{"base_weights":[-2.3263787E-8,8.180691E-1,-5.1827937E-2,-5.0885063E-2,2.5742447E0,-4.837077E-2,5.256897E0,2.9685155E-1,7.6020184E0,-3.9406348E-2,1.3038397E-1,9.3265957E-1,-3.2605305E-2],"categories":[],"categories_nodes":[],"categories_segments":[],"categories_sizes":[],"default_left":[0,0,0,0,0,0,0,0,0,0,0,0,0],"id":2,"left_children":[1,3,-1,-1,5,-1,7,9,11,-1,-1,-1,-1],"loss_changes":[6.560256E1,1.411474E2,0E0,0E0,2.1576399E2,0E0,1.5977298E2,4.3490086E0,1.3180042E2,0E0,0E0,0E0,0E0],"parents":[2147483647,0,0,1,1,4,4,6,6,7,7,8,8],"right_children":[2,4,-1,-1,6,-1,8,10,12,-1,-1,-1,-1],"split_conditions":[7.503248E1,5.9844994E1,-5.1827937E-2,-5.0885063E-2,6.4988956E0,-4.837077E-2,5.8E1,5.4E1,2.6E1,-3.9406348E-2,1.3038397E-1,9.3265957E-1,-3.2605305E-2],"split_indices":[6,6,0,0,5,0,1,1,2,0,0,0,0],"split_type":[0,0,0,0,0,0,0,0,0,0,0,0,0],"sum_hessian":[1.5272728E2,5.9008266E1,9.371901E1,3.401653E1,2.4991735E1,1.2061983E1,1.2929752E1,4.512397E0,8.417356E0,3.0371902E0,1.4752066E0,6.768595E0,1.6487603E0],"tree_param":{"num_deleted":"0","num_feature":"7","num_nodes":"13","size_leaf_vector":"1"}},{"base_weights":[-3.9030183E-2,7.2834573E0,-5.133229E-1,-3.538874E-2,9.500281E-1,1.92233E-2,-5.2017655E-2],"categories":[],"categories_nodes":[],"categories_segments":[],"categories_sizes":[],"default_left":[0,0,0,0,0,0,0],"id":3,"left_children":[1,3,5,-1,-1,-1,-1],"loss_changes":[5.37634E2,1.6280402E2,8.026619E-1,0E0,0E0,0E0,0E0],"parents":[2147483647,0,0,1,1,2,2],"right_children":[2,4,6,-1,-1,-1,-1],"split_conditions":[1.9870707E1,2.6E1,2.1179197E1,-3.538874E-2,9.500281E-1,1.92233E-2,-5.2017655E-2],"split_indices":[4,2,4,0,0,0,0],"split_type":[0,0,0,0,0,0,0],"sum_hessian":[1.5272728E2,8.417356E0,1.4430992E2,2.0826447E0,6.3347106E0,1.1280992E0,1.4318182E2],"tree_param":{"num_deleted":"0","num_feature":"7","num_nodes":"7","size_leaf_vector":"1"}},{"base_weights":[-4.5535207E-2,-3.0031133E-1,8.041048E-1,-5.1126236E-1,5.7684237E-1,-5.1938582E-2,-1.4636645E-1,-5.0166E-2,4.1892214E0,2.2267206E-2,-3.4896553E-2,8.087527E-1,-3.967936E-2],"categories":[],"categories_nodes":[],"categories_segments":[],"categories_sizes":[],"default_left":[0,0,0,0,0,0,0,0,0,0,0,0,0],"id":4,"left_children":[1,3,-1,5,7,-1,9,-1,11,-1,-1,-1,-1],"loss_changes":[3.1913422E2,2.8049625E1,0E0,2.839756E-1,1.17225555E2,0E0,3.795529E-1,0E0,1.2657991E2,0E0,0E0,0E0,0E0],"parents":[2147483647,0,0,1,1,3,3,4,4,6,6,8,8],"right_children":[2,4,-1,6,8,-1,10,-1,12,-1,-1,-1,-1],"split_conditions":[9.495032E1,9.073892E1,8.041048E-1,9.026457E1,1.2934494E2,-5.1938582E-2,2.3E1,-5.0166E-2,3.1E1,2.2267206E-2,-3.4896553E-2,8.087527E-1,-3.967936E-2],"split_indices":[4,4,0,4,6,0,1,0,1,0,0,0,0],"split_type":[0,0,0,0,0,0,0,0,0,0,0,0,0],"sum_hessian":[1.5272728E2,1.4899586E2,3.731405E0,1.2044628E2,2.8549587E1,1.1740909E2,3.0371902E0,2.264876E1,5.9008265E0,1.0413224E0,1.9958677E0,2.7768595E0,3.123967E0],"tree_param":{"num_deleted":"0","num_feature":"7","num_nodes":"13","size_leaf_vector":"1"}},{"base_weights":[1.9515056E-2,-4.8421168E-1,1.4405429E0,-5.1894754E-2,7.870113E-2,1.8178573E-1,7.7297297E0,1.6923076E-1,-4.428115E-2,-5.0424453E-2,2.2060716E0,9.0354246E-1,6.621359E-2,7.431635E-1,-4.479042E-2],"categories":[],"categories_nodes":[],"categories_segments":[],"categories_sizes":[],"default_left":[0,0,0,0,0,0,0,0,0,0,0,0,0,0,0],"id":5,"left_children":[1,3,5,-1,7,9,11,-1,-1,-1,13,-1,-1,-1,-1],"loss_changes":[1.1073701E2,2.274681E0,3.1908466E2,0E0,7.0677E0,4.9379074E1,5.6097412E1,0E0,0E0,0E0,1.279161E2,0E0,0E0,0E0,0E0],"parents":[2147483647,0,0,1,1,2,2,4,4,5,5,6,6,10,10],"right_children":[2,4,6,-1,8,10,12,-1,-1,-1,14,-1,-1,-1,-1],"split_conditions":[1.2045093E2,1.14282135E2,9.7E1,-5.1894754E-2,7.605522E1,8E1,6.859232E1,1.6923076E-1,-4.428115E-2,-5.0424453E-2,6.8742485E1,9.0354246E-1,6.621359E-2,7.431635E-1,-4.479042E-2],"split_indices":[6,6,0,0,4,0,4,0,0,0,4,0,0,0,0],"split_type":[0,0,0,0,0,0,0,0,0,0,0,0,0,0,0],"sum_hessian":[1.5272728E2,1.13243805E2,3.948347E1,1.06735535E2,6.5082645E0,3.37562E1,5.727273E0,1.0413224E0,5.4669423E0,2.5772728E1,7.983471E0,4.5991735E0,1.1280992E0,2.0826447E0,5.9008265E0],"tree_param":{"num_deleted":"0","num_feature":"7","num_nodes":"15","size_leaf_vector":"1"}},{"base_weights":[1.9515056E-2,-2.1471518E-1,8.387634E-1,-5.1983185E-2,1.8222545E0,8.1904024E-1,-4.8999738E-2],"categories":[],"categories_nodes":[],"categories_segments":[],"categories_sizes":[],"default_left":[0,0,0,0,0,0,0],"id":6,"left_children":[1,3,-1,-1,5,-1,-1],"loss_changes":[3.0311667E2,9.44953E1,0E0,0E0,2.960138E2,0E0,0E0],"parents":[2147483647,0,0,1,1,4,4],"right_children":[2,4,-1,-1,6,-1,-1],"split_conditions":[1.21E2,1E2,8.387634E-1,-5.1983185E-2,2.6E1,8.1904024E-1,-4.8999738E-2],"split_indices":[0,0,0,0,2,0,0],"split_type":[0,0,0,0,0,0,0],"sum_hessian":[1.5272728E2,1.4951653E2,3.210744E0,1.3068596E2,1.8830578E1,4.338843E0,1.4491735E1],"tree_param":{"num_deleted":"0","num_feature":"7","num_nodes":"7","size_leaf_vector":"1"}},{"base_weights":[3.9030135E-2,-5.2005686E-2,5.1893587E0,9.700195E-1,-4.556213E-2],"categories":[],"categories_nodes":[],"categories_segments":[],"categories_sizes":[],"default_left":[0,0,0,0,0],"id":7,"left_children":[1,-1,3,-1,-1],"loss_changes":[4.453536E2,0E0,3.9005612E2,0E0,0E0],"parents":[2147483647,0,0,2,2],"right_children":[2,-1,4,-1,-1],"split_conditions":[1.2E2,-5.2005686E-2,8.4134186E1,9.700195E-1,-4.556213E-2],"split_indices":[1,0,4,0,0],"split_type":[0,0,0,0,0],"sum_hessian":[1.5272728E2,1.3858264E2,1.4144629E1,7.46281E0,6.681818E0],"tree_param":{"num_deleted":"0","num_feature":"7","num_nodes":"5","size_leaf_vector":"1"}},{"base_weights":[-1.9515103E-2,-5.1959872E-2,2.0321524E0,-4.8175182E-2,3.5831873E0,6.217391E0,-4.6127286E-2,7.6330433E0,-3.4896553E-2,1.6923076E-1,8.1640625E0,2.0718446E-1,8.818591E-1],"categories":[],"categories_nodes":[],"categories_segments":[],"categories_sizes":[],"default_left":[0,0,0,0,0,0,0,0,0,0,0,0,0],"id":8,"left_children":[1,-1,3,-1,5,7,-1,9,-1,-1,11,-1,-1],"loss_changes":[1.5878091E2,0E0,1.1998979E2,0E0,2.0397192E2,1.09563934E2,0E0,1.6166016E1,0E0,0E0,1.5474976E1,0E0,0E0],"parents":[2147483647,0,0,2,2,4,4,5,5,7,7,10,10],"right_children":[2,-1,4,-1,6,8,-1,10,-1,-1,12,-1,-1],"split_conditions":[1.4924335E2,-5.1959872E-2,3.5E1,-4.8175182E-2,1.9979364E2,8.9895935E1,-4.6127286E-2,6.043331E0,-3.4896553E-2,1.6923076E-1,3.8E1,2.0718446E-1,8.818591E-1],"split_indices":[6,0,2,0,6,4,0,5,0,0,1,0,0],"split_type":[0,0,0,0,0,0,0,0,0,0,0,0,0],"sum_hessian":[1.5272728E2,1.233967E2,2.9330578E1,1.1454546E1,1.7876034E1,1.05E1,7.3760333E0,8.504132E0,1.9958677E0,1.0413224E0,7.46281E0,1.1280992E0,6.3347106E0],"tree_param":{"num_deleted":"0","num_feature":"7","num_nodes":"13","size_leaf_vector":"1"}},{"base_weights":[-2.3263787E-8,4.95E0,-5.200685E-2,9.2931986E-1,-4.5404516E-2],"categories":[],"categories_nodes":[],"categories_segments":[],"categories_sizes":[],"default_left":[0,0,0,0,0],"id":9,"left_children":[1,3,-1,-1,-1],"loss_changes":[3.9832043E2,3.49493E2,0E0,0E0,0E0],"parents":[2147483647,0,0,1,1],"right_children":[2,4,-1,-1,-1],"split_conditions":[3.231529E1,5.999969E0,-5.200685E-2,9.2931986E-1,-4.5404516E-2],"split_indices":[4,5,0,0,0],"split_type":[0,0,0,0,0],"sum_hessian":[1.5272728E2,1.3710744E1,1.3901653E2,7.2024794E0,6.5082645E0],"tree_param":{"num_deleted":"0","num_feature":"7","num_nodes":"5","size_leaf_vector":"1"}},{"base_weights":[5.8545213E-2,2.37798E0,-5.1958103E-2,4.5960978E-2,8.905296E-1,-4.9828872E-2,2.6879292E0,3.9903447E-1,-2.8731344E-2],"categories":[],"categories_nodes":[],"categories_segments":[],"categories_sizes":[],"default_left":[0,0,0,0,0,0,0,0,0],"id":10,"left_children":[1,3,-1,5,-1,-1,7,-1,-1],"loss_changes":[2.0737248E2,4.6920282E2,0E0,3.5468464E1,0E0,0E0,1.746312E1,0E0,0E0],"parents":[2147483647,0,0,1,1,3,3,6,6],"right_children":[2,4,-1,6,-1,-1,8,-1,-1],"split_conditions":[5.521607E1,6E1,-5.1958103E-2,5.5E1,8.905296E-1,-4.9828872E-2,6.934786E1,3.9903447E-1,-2.8731344E-2],"split_indices":[6,1,0,1,0,0,4,0,0],"split_type":[0,0,0,0,0,0,0,0,0],"sum_hessian":[1.5272728E2,2.985124E1,1.2287604E2,2.2735537E1,7.1157026E0,1.9524794E1,3.210744E0,1.9958677E0,1.214876E0],"tree_param":{"num_deleted":"0","num_feature":"7","num_nodes":"9","size_leaf_vector":"1"}},{"base_weights":[-6.5050498E-3,-5.1832963E-2,8.208496E-1,4.5526247E0,-5.12032E-2,9.2749494E-1,-4.625423E-2],"categories":[],"categories_nodes":[],"categories_segments":[],"categories_sizes":[],"default_left":[0,0,0,0,0,0,0],"id":11,"left_children":[1,-1,3,5,-1,-1,-1],"loss_changes":[6.552288E1,0E0,2.9649677E2,3.7529495E2,0E0,0E0,0E0],"parents":[2147483647,0,0,2,2,3,3],"right_children":[2,-1,4,6,-1,-1,-1],"split_conditions":[6E1,-5.1832963E-2,2.6E1,1E2,-5.12032E-2,9.2749494E-1,-4.625423E-2],"split_indices":[0,0,2,0,0,0,0],"split_type":[0,0,0,0,0,0,0],"sum_hessian":[1.5272728E2,9.458678E1,5.8140495E1,1.4665289E1,4.347521E1,7.1157026E0,7.549587E0],"tree_param":{"num_deleted":"0","num_feature":"7","num_nodes":"7","size_leaf_vector":"1"}},{"base_weights":[6.505003E-3,1.9779356E0,-5.1952094E-2,7.07981E0,-4.1468644E-1,9.069791E-1,-3.585398E-2,7.125506E-2,-5.000936E-2],"categories":[],"categories_nodes":[],"categories_segments":[],"categories_sizes":[],"default_left":[0,0,0,0,0,0,0,0,0],"id":12,"left_children":[1,3,-1,5,7,-1,-1,-1,-1],"loss_changes":[1.604464E2,4.0071808E2,0E0,1.5806299E2,2.5829778E0,0E0,0E0,0E0,0E0],"parents":[2147483647,0,0,1,1,3,3,4,4],"right_children":[2,4,-1,6,8,-1,-1,-1,-1],"split_conditions":[5.520522E1,3.9E1,-5.1952094E-2,4.1E1,4.4E1,9.069791E-1,-3.585398E-2,7.125506E-2,-5.000936E-2],"split_indices":[4,1,0,0,1,0,0,0,0],"split_type":[0,0,0,0,0,0,0,0,0],"sum_hessian":[1.5272728E2,3.1586777E1,1.21140495E2,9.458677E0,2.21281E1,7.289256E0,2.1694214E0,1.0413224E0,2.1086777E1],"tree_param":{"num_deleted":"0","num_feature":"7","num_nodes":"9","size_leaf_vector":"1"}},{"base_weights":[-2.6020128E-2,-2.25769E-1,5.5681114E0,3.9136165E-1,-3.0340794E-1,-3.1935483E-2,8.087527E-1,3.8219628E-1,-4.9342644E-1,7.0076144E-1,-3.4168938E-1,-6.596703E-2,-5.1013905E-1,1.1725888E0,-5.0515164E-2,7.125506E-2,-4.0665437E-2,-2.943373E-1,-5.188598E-2,2.1821861E-1,-2.8731344E-2,2.2267206E-2,-4.3025833E-2],"categories":[],"categories_nodes":[],"categories_segments":[],"categories_sizes":[],"default_left":[0,0,0,0,0,0,0,0,0,0,0,0,0,0,0,0,0,0,0,0,0,0,0],"id":13,"left_children":[1,3,5,-1,7,-1,-1,9,11,-1,13,15,17,19,-1,-1,-1,21,-1,-1,-1,-1,-1],"loss_changes":[1.7303526E2,4.91975E1,8.177373E1,0E0,1.941313E1,0E0,0E0,1.5868207E2,7.94899E-1,0E0,8.099981E0,1.7518208E0,5.7058334E-2,5.4263263E0,0E0,0E0,0E0,5.6245035E-1,0E0,0E0,0E0,0E0,0E0],"parents":[2147483647,0,0,1,1,2,2,4,4,7,7,8,8,10,10,11,11,12,12,13,13,17,17],"right_children":[2,4,6,-1,8,-1,-1,10,12,-1,14,16,18,20,-1,-1,-1,22,-1,-1,-1,-1,-1],"split_conditions":[7.9946795E0,4.672437E0,2.3982897E1,3.9136165E-1,5.9212357E1,-3.1935483E-2,8.087527E-1,6.1946262E1,6.1623135E1,7.0076144E-1,7.1737595E1,4.6E1,6.358337E1,7E1,-5.0515164E-2,7.125506E-2,-4.0665437E-2,3.9E1,-5.188598E-2,2.1821861E-1,-2.8731344E-2,2.2267206E-2,-4.3025833E-2],"split_indices":[5,5,3,0,4,0,0,6,4,0,6,1,4,1,0,0,0,1,0,0,0,0,0],"split_type":[0,0,0,0,0,0,0,0,0,0,0,0,0,0,0,0,0,0,0,0,0,0,0],"sum_hessian":[1.5272728E2,1.4838843E2,4.338843E0,1.822314E0,1.4656612E2,1.5619835E0,2.7768595E0,3.1586777E1,1.1497934E2,2.2561984E0,2.9330578E1,4.512397E0,1.1046694E2,2.2561984E0,2.707438E1,1.0413224E0,3.4710743E0,5.640496E0,1.0482645E2,1.0413224E0,1.214876E0,1.0413224E0,4.5991735E0],"tree_param":{"num_deleted":"0","num_feature":"7","num_nodes":"23","size_leaf_vector":"1"}},{"base_weights":[6.505003E-3,1.7646444E0,-5.1941156E-2,3.414853E0,-4.9091857E-2,-4.8524495E-2,9.521384E-1],"categories":[],"categories_nodes":[],"categories_segments":[],"categories_sizes":[],"default_left":[0,0,0,0,0,0,0],"id":14,"left_children":[1,3,-1,5,-1,-1,-1],"loss_changes":[1.4305817E2,1.3427417E2,0E0,4.975735E2,0E0,0E0,0E0],"parents":[2147483647,0,0,1,1,3,3],"right_children":[2,4,-1,6,-1,-1,-1],"split_conditions":[6.0951973E1,2.6E1,-5.1941156E-2,6.9961E1,-4.9091857E-2,-4.8524495E-2,9.521384E-1],"split_indices":[6,2,0,4,0,0,0],"split_type":[0,0,0,0,0,0,0],"sum_hessian":[1.5272728E2,3.4623966E1,1.1810331E2,1.9698347E1,1.492562E1,1.2582644E1,7.1157026E0],"tree_param":{"num_deleted":"0","num_feature":"7","num_nodes":"7","size_leaf_vector":"1"}},{"base_weights":[1.9515056E-2,9.658942E-1,-5.2023467E-2],"categories":[],"categories_nodes":[],"categories_segments":[],"categories_sizes":[],"default_left":[0,0,0],"id":15,"left_children":[1,-1,-1],"loss_changes":[8.048491E2,0E0,0E0],"parents":[2147483647,0,0],"right_children":[2,-1,-1],"split_conditions":[3.0920141E1,9.658942E-1,-5.2023467E-2],"split_indices":[6,0,0],"split_type":[0,0,0],"sum_hessian":[1.5272728E2,7.2024794E0,1.455248E2],"tree_param":{"num_deleted":"0","num_feature":"7","num_nodes":"3","size_leaf_vector":"1"}},{"base_weights":[3.9030135E-2,9.5680475E-1,-4.5904174E-1,7.7464783E-1,-5.2008696E-2,4.1417003E-1,-4.4057783E-2],"categories":[],"categories_nodes":[],"categories_segments":[],"categories_sizes":[],"default_left":[0,0,0,0,0,0,0],"id":16,"left_children":[1,-1,3,5,-1,-1,-1],"loss_changes":[7.3400256E2,0E0,1.1476999E1,3.1836391E1,0E0,0E0,0E0],"parents":[2147483647,0,0,2,2,3,3],"right_children":[2,-1,4,6,-1,-1,-1],"split_conditions":[1.5E1,9.5680475E-1,1.6E1,3.8E1,-5.2008696E-2,4.1417003E-1,-4.4057783E-2],"split_indices":[2,0,2,1,0,0,0],"split_type":[0,0,0,0,0,0,0],"sum_hessian":[1.5272728E2,6.681818E0,1.4604546E2,6.3347106E0,1.3971074E2,1.0413224E0,5.2933884E0],"tree_param":{"num_deleted":"0","num_feature":"7","num_nodes":"7","size_leaf_vector":"1"}},{"base_weights":[-1.9515103E-2,-1.9364172E-1,5.504803E0,-5.1928636E-2,8.8351333E-1,-2.9622981E-2,7.792771E-1,-5.02444E-2,3.718584E0,8.9055866E-1,-4.532294E-2],"categories":[],"categories_nodes":[],"categories_segments":[],"categories_sizes":[],"default_left":[0,0,0,0,0,0,0,0,0,0,0],"id":17,"left_children":[1,3,5,-1,7,-1,-1,-1,9,-1,-1],"loss_changes":[1.4894096E2,5.3072815E1,6.5106384E1,0E0,1.401403E2,0E0,0E0,0E0,2.566427E2,0E0,0E0],"parents":[2147483647,0,0,1,1,2,2,4,4,8,8],"right_children":[2,4,6,-1,8,-1,-1,-1,10,-1,-1],"split_conditions":[3.6731266E1,9.014362E1,8.282904E1,-5.1928636E-2,3.1E1,-2.9622981E-2,7.792771E-1,-5.02444E-2,7.1E1,8.9055866E-1,-4.532294E-2],"split_indices":[3,4,4,0,1,0,0,0,1,0,0],"split_type":[0,0,0,0,0,0,0,0,0,0,0],"sum_hessian":[1.5272728E2,1.4899586E2,3.731405E0,1.14805786E2,3.4190083E1,1.3016529E0,2.429752E0,2.351653E1,1.0673553E1,4.252066E0,6.421488E0],"tree_param":{"num_deleted":"0","num_feature":"7","num_nodes":"11","size_leaf_vector":"1"}},{"base_weights":[-1.9515103E-2,1.2546799E0,-4.3367782E-1,-3.7201852E-1,3.572403E0,1.4954683E-1,-4.7578678E-1,4.9582638E-2,-4.5371604E-1,1.5843003E0,7.9857653E-1,-1.999031E-1,-5.1851697E-2,-1.517243E-3,-4.972792E-2,3.0841122E0,-4.369863E-2,-4.2653656E-1,1.3702421E-1,-4.1310046E-2,7.1112484E-1,2.2267206E-2,-4.8799098E-2],"categories":[],"categories_nodes":[],"categories_segments":[],"categories_sizes":[],"default_left":[0,0,0,0,0,0,0,0,0,0,0,0,0,0,0,0,0,0,0,0,0,0,0],"id":18,"left_children":[1,3,5,7,9,-1,11,-1,13,15,-1,17,-1,-1,-1,19,-1,21,-1,-1,-1,-1,-1],"loss_changes":[8.166971E1,1.4447334E2,1.0196465E1,1.8709171E0,1.2556021E2,0E0,1.252325E0,0E0,4.077773E-1,3.805201E1,0E0,6.652981E0,0E0,0E0,0E0,1.0257146E2,0E0,7.336557E-1,0E0,0E0,0E0,0E0,0E0],"parents":[2147483647,0,0,1,1,2,2,3,3,4,4,6,6,8,8,9,9,11,11,15,15,17,17],"right_children":[2,4,6,8,10,-1,12,-1,14,16,-1,18,-1,-1,-1,20,-1,22,-1,-1,-1,-1,-1],"split_conditions":[5.964024E1,1.00196175E2,5.4983406E0,4.749104E0,2.7923744E1,1.4954683E-1,6.665953E1,4.9582638E-2,1.8E1,3.5E1,7.9857653E-1,1.6449704E2,-5.1851697E-2,-1.517243E-3,-4.972792E-2,2.4968817E1,-4.369863E-2,5.9190454E0,1.3702421E-1,-4.1310046E-2,7.1112484E-1,2.2267206E-2,-4.8799098E-2],"split_indices":[4,6,5,5,3,0,4,0,2,0,0,6,0,0,0,4,0,5,0,0,0,0,0],"split_type":[0,0,0,0,0,0,0,0,0,0,0,0,0,0,0,0,0,0,0,0,0,0,0],"sum_hessian":[1.5272728E2,3.696694E1,1.1576033E2,2.2214876E1,1.4752067E1,1.7355372E0,1.14024796E2,1.4752066E0,2.073967E1,1.1107438E1,3.644628E0,1.6053719E1,9.797108E1,1.9958677E0,1.8743801E1,6.0743804E0,5.0330577E0,1.4665289E1,1.3884298E0,3.731405E0,2.3429751E0,1.0413224E0,1.3623967E1],"tree_param":{"num_deleted":"0","num_feature":"7","num_nodes":"23","size_leaf_vector":"1"}},{"base_weights":[-1.9515103E-2,1.2226774E0,-5.1906228E-2,4.344058E0,-5.0603088E-2,-4.4884685E-2,7.2769227E0,9.5680475E-1,-3.629442E-2],"categories":[],"categories_nodes":[],"categories_segments":[],"categories_sizes":[],"default_left":[0,0,0,0,0,0,0,0,0],"id":19,"left_children":[1,3,-1,5,-1,-1,7,-1,-1],"loss_changes":[9.6027596E1,2.4171625E2,0E0,2.271318E2,0E0,0E0,1.7742657E2,0E0,0E0],"parents":[2147483647,0,0,1,1,3,3,6,6],"right_children":[2,4,-1,6,-1,-1,8,-1,-1],"split_conditions":[3.1E1,2.497256E1,-5.1906228E-2,3.5E1,-5.0603088E-2,-4.4884685E-2,4.1E1,9.5680475E-1,-3.629442E-2],"split_indices":[1,3,0,2,0,0,0,0,0],"split_type":[0,0,0,0,0,0,0,0,0],"sum_hessian":[1.5272728E2,4.338843E1,1.09338844E2,1.492562E1,2.846281E1,5.987603E0,8.938017E0,6.681818E0,2.2561984E0],"tree_param":{"num_deleted":"0","num_feature":"7","num_nodes":"9","size_leaf_vector":"1"}},{"base_weights":[6.505003E-3,-3.638331E-1,7.0946746E0,-5.1996607E-2,1.4764582E0,9.176712E-1,-3.2605305E-2,-2.972973E-1,3.209589E0,-4.3168604E-2,2.2267206E-2,4.513863E0,-3.1935483E-2,2.2267206E-2,5.751807E-1],"categories":[],"categories_nodes":[],"categories_segments":[],"categories_sizes":[],"default_left":[0,0,0,0,0,0,0,0,0,0,0,0,0,0,0],"id":20,"left_children":[1,3,5,-1,7,-1,-1,9,11,-1,-1,13,-1,-1,-1],"loss_changes":[4.0611832E2,4.3018295E1,1.2167798E2,0E0,3.7107224E1,0E0,0E0,5.6621295E-1,2.920993E1,0E0,0E0,2.2470726E1,0E0,0E0,0E0],"parents":[2147483647,0,0,1,1,2,2,4,4,7,7,8,8,11,11],"right_children":[2,4,6,-1,8,-1,-1,10,12,-1,-1,14,-1,-1,-1],"split_conditions":[2.1800557E2,1.8226881E2,8.497849E1,-5.1996607E-2,3.6E1,9.176712E-1,-3.2605305E-2,3.4E1,8.497849E1,-4.3168604E-2,2.2267206E-2,8.018547E1,-3.1935483E-2,2.2267206E-2,5.751807E-1],"split_indices":[6,6,4,0,2,0,0,2,4,0,0,4,0,0,0],"split_type":[0,0,0,0,0,0,0,0,0,0,0,0,0,0,0],"sum_hessian":[1.5272728E2,1.4604546E2,6.681818E0,1.3528513E2,1.076033E1,5.0330577E0,1.6487603E0,5.727273E0,5.0330577E0,4.6859503E0,1.0413224E0,3.4710743E0,1.5619835E0,1.0413224E0,2.429752E0],"tree_param":{"num_deleted":"0","num_feature":"7","num_nodes":"15","size_leaf_vector":"1"}},{"base_weights":[6.505003E-3,1.8043426E0,-5.194339E-2,-4.9860835E-2,4.8285403E0,9.6299535E-1,-4.5994963E-2],"categories":[],"categories_nodes":[],"categories_segments":[],"categories_sizes":[],"default_left":[0,0,0,0,0,0,0],"id":21,"left_children":[1,3,-1,-1,5,-1,-1],"loss_changes":[1.462945E2,2.4628293E2,0E0,0E0,3.9118854E2,0E0,0E0],"parents":[2147483647,0,0,1,1,4,4],"right_children":[2,4,-1,-1,6,-1,-1],"split_conditions":[5.9844994E1,6.9E1,-5.194339E-2,-4.9860835E-2,2.7022692E1,9.6299535E-1,-4.5994963E-2],"split_indices":[6,0,0,0,3,0,0],"split_type":[0,0,0,0,0,0,0],"sum_hessian":[1.5272728E2,3.401653E1,1.1871075E2,1.9785124E1,1.4231405E1,7.028926E0,7.2024794E0],"tree_param":{"num_deleted":"0","num_feature":"7","num_nodes":"7","size_leaf_vector":"1"}},{"base_weights":[-2.080144E-2,-5.1813167E-2,2.7224202E0,-4.5651138E-2,4.0736085E-1],"categories":[],"categories_nodes":[],"categories_segments":[],"categories_sizes":[],"default_left":[0,0,0,0,0],"id":22,"left_children":[1,-1,3,-1,-1],"loss_changes":[2.1053238E2,0E0,1.035918E2,0E0,0E0],"parents":[2147483647,0,0,2,2],"right_children":[2,-1,4,-1,-1],"split_conditions":[1.2E2,-5.1813167E-2,8.4134186E1,-4.5651138E-2,4.0736085E-1],"split_indices":[1,0,4,0,0],"split_type":[0,0,0,0,0],"sum_hessian":[1.5228284E2,1.295985E2,2.2684338E1,6.963499E0,1.5720839E1],"tree_param":{"num_deleted":"0","num_feature":"7","num_nodes":"5","size_leaf_vector":"1"}},{"base_weights":[-8.893977E-3,-5.1737864E-2,1.2368629E0,-5.0386645E-2,4.067795E-1],"categories":[],"categories_nodes":[],"categories_segments":[],"categories_sizes":[],"default_left":[0,0,0,0,0],"id":23,"left_children":[1,-1,3,-1,-1],"loss_changes":[9.7923615E1,0E0,2.2287338E2,0E0,0E0],"parents":[2147483647,0,0,2,2],"right_children":[2,-1,4,-1,-1],"split_conditions":[7E1,-5.1737864E-2,6.9E1,-5.0386645E-2,4.067795E-1],"split_indices":[1,0,0,0,0],"split_type":[0,0,0,0,0],"sum_hessian":[1.5257796E2,1.0876691E2,4.381105E1,2.7638348E1,1.6172703E1],"tree_param":{"num_deleted":"0","num_feature":"7","num_nodes":"5","size_leaf_vector":"1"}},{"base_weights":[-1.6756627E-3,6.924958E-1,-5.16258E-2,-5.0617933E-2,1.8287544E0,-4.7957446E-2,2.9962854E0,-4.104751E-2,3.646524E0,-2.8782805E-2,3.9318118E0,4.1052756E-1,9.898908E-2],"categories":[],"categories_nodes":[],"categories_segments":[],"categories_sizes":[],"default_left":[0,0,0,0,0,0,0,0,0,0,0,0,0],"id":24,"left_children":[1,3,-1,-1,5,-1,7,-1,9,-1,11,-1,-1],"loss_changes":[5.5172928E1,9.0484184E1,0E0,0E0,9.299601E1,0E0,5.1781128E1,0E0,2.2640259E1,0E0,5.0888367E0,0E0,0E0],"parents":[2147483647,0,0,1,1,4,4,6,6,8,8,10,10],"right_children":[2,4,-1,-1,6,-1,8,-1,10,-1,12,-1,-1],"split_conditions":[7.503248E1,5.9844994E1,-5.16258E-2,-5.0617933E-2,6.4988956E0,-4.7957446E-2,2.4882444E1,-4.104751E-2,5.4E1,-2.8782805E-2,6.9691414E1,4.1052756E-1,9.898908E-2],"split_indices":[6,6,0,0,5,0,3,0,1,0,4,0,0],"split_type":[0,0,0,0,0,0,0,0,0,0,0,0,0],"sum_hessian":[1.5245502E2,6.4754906E1,8.77001E1,3.17818E1,3.2973106E1,1.1273493E1,2.1699614E1,3.5370204E0,1.8162594E1,1.2273629E0,1.693523E1,1.5618859E1,1.3163717E0],"tree_param":{"num_deleted":"0","num_feature":"7","num_nodes":"13","size_leaf_vector":"1"}},{"base_weights":[-3.841856E-2,3.5789695E0,-5.1094234E-1,-3.4649022E-2,4.0901428E-1,1.9359678E-2,-5.1825076E-2],"categories":[],"categories_nodes":[],"categories_segments":[],"categories_sizes":[],"default_left":[0,0,0,0,0,0,0],"id":25,"left_children":[1,3,5,-1,-1,-1,-1],"loss_changes":[2.6293933E2,3.7081833E1,8.0052567E-1,0E0,0E0,0E0,0E0],"parents":[2147483647,0,0,1,1,2,2],"right_children":[2,4,6,-1,-1,-1,-1],"split_conditions":[1.9870707E1,2.6E1,2.1179197E1,-3.4649022E-2,4.0901428E-1,1.9359678E-2,-5.1825076E-2],"split_indices":[4,2,4,0,0,0,0],"split_type":[0,0,0,0,0,0,0],"sum_hessian":[1.5175868E2,1.6773746E1,1.3498494E2,1.9697317E0,1.4804014E1,1.1241734E0,1.3386076E2],"tree_param":{"num_deleted":"0","num_feature":"7","num_nodes":"7","size_leaf_vector":"1"}},{"base_weights":[-3.9427985E-2,-2.9008803E-1,4.0763736E0,-5.087549E-1,5.2357495E-1,1.1768714E-1,4.320112E-1,-5.1740885E-2,-1.3528797E-1,-4.9846392E-2,2.7803378E0,2.3756145E-2,-3.442191E-2,4.2181966E-1,-3.9084833E-2],"categories":[],"categories_nodes":[],"categories_segments":[],"categories_sizes":[],"default_left":[0,0,0,0,0,0,0,0,0,0,0,0,0,0,0],"id":26,"left_children":[1,3,5,7,9,-1,-1,-1,11,-1,13,-1,-1,-1,-1],"loss_changes":[1.5733582E2,2.58167E1,1.1033936E0,2.9745865E-1,7.268214E1,0E0,0E0,0E0,3.8783374E-1,0E0,4.6276146E1,0E0,0E0,0E0,0E0],"parents":[2147483647,0,0,1,1,2,2,3,3,4,4,8,8,10,10],"right_children":[2,4,6,8,10,-1,-1,-1,12,-1,14,-1,-1,-1,-1],"split_conditions":[9.495032E1,9.073892E1,1.3604567E2,9.026457E1,1.2934494E2,1.1768714E-1,4.320112E-1,-5.1740885E-2,6.112751E0,-4.9846392E-2,3.1E1,2.3756145E-2,-3.442191E-2,4.2181966E-1,-3.9084833E-2],"split_indices":[4,4,6,4,6,0,0,0,5,0,1,0,0,0,0],"split_type":[0,0,0,0,0,0,0,0,0,0,0,0,0,0,0],"sum_hessian":[1.503602E2,1.4260481E2,7.755383E0,1.12693794E2,2.9911018E1,1.0533373E0,6.702046E0,1.097649E2,2.9288988E0,2.1123684E1,8.7873335E0,1.002625E0,1.9262738E0,5.8188334E0,2.9685006E0],"tree_param":{"num_deleted":"0","num_feature":"7","num_nodes":"15","size_leaf_vector":"1"}},{"base_weights":[2.2384943E-2,-4.7984886E-1,1.1770185E0,-5.1687777E-2,9.2741705E-2,-5.017093E-2,3.040853E0,1.7200243E-1,-4.398502E-2,4.540448E-1,-4.5366418E-2],"categories":[],"categories_nodes":[],"categories_segments":[],"categories_sizes":[],"default_left":[0,0,0,0,0,0,0,0,0,0,0],"id":27,"left_children":[1,3,5,-1,7,-1,9,-1,-1,-1,-1],"loss_changes":[8.894041E1,2.3147678E0,1.4697182E2,0E0,7.11964E0,0E0,1.18237305E2,0E0,0E0,0E0,0E0],"parents":[2147483647,0,0,1,1,2,2,4,4,6,6],"right_children":[2,4,6,-1,8,-1,10,-1,-1,-1,-1],"split_conditions":[1.2045093E2,1.14282135E2,8E1,-5.1687777E-2,7.51464E1,-5.017093E-2,6.9961E1,1.7200243E-1,-4.398502E-2,4.540448E-1,-4.5366418E-2],"split_indices":[6,6,0,0,4,0,4,0,0,0,0],"split_type":[0,0,0,0,0,0,0,0,0,0,0],"sum_hessian":[1.5139908E2,1.0591387E2,4.5485203E1,9.9571945E1,6.341931E0,2.4315454E1,2.1169746E1,1.0140536E0,5.327877E0,1.460362E1,6.566127E0],"tree_param":{"num_deleted":"0","num_feature":"7","num_nodes":"11","size_leaf_vector":"1"}},{"base_weights":[2.1256609E-2,-5.1788475E-2,2.198067E0,4.361586E0,-4.8607916E-2,4.5631954E-1,6.855806E-2],"categories":[],"categories_nodes":[],"categories_segments":[],"categories_sizes":[],"default_left":[0,0,0,0,0,0,0],"id":28,"left_children":[1,-1,3,5,-1,-1,-1],"loss_changes":[1.8032808E2,0E0,1.7923741E2,9.461548E0,0E0,0E0,0E0],"parents":[2147483647,0,0,2,2,3,3],"right_children":[2,-1,4,6,-1,-1,-1],"split_conditions":[1E2,-5.1788475E-2,2.6E1,9.9469505E1,-4.8607916E-2,4.5631954E-1,6.855806E-2],"split_indices":[0,0,2,6,0,0,0],"split_type":[0,0,0,0,0,0,0],"sum_hessian":[1.5168271E2,1.22183105E2,2.94996E1,1.5987861E1,1.351174E1,1.4927805E1,1.0600559E0],"tree_param":{"num_deleted":"0","num_feature":"7","num_nodes":"7","size_leaf_vector":"1"}},{"base_weights":[3.252534E-2,-5.1813167E-2,2.9092648E0,4.0528807E-1,-4.5005925E-2],"categories":[],"categories_nodes":[],"categories_segments":[],"categories_sizes":[],"default_left":[0,0,0,0,0],"id":29,"left_children":[1,-1,3,-1,-1],"loss_changes":[2.4638652E2,0E0,9.782034E1,0E0,0E0],"parents":[2147483647,0,0,2,2],"right_children":[2,-1,4,-1,-1],"split_conditions":[1.2E2,-5.1813167E-2,8.4134186E1,4.0528807E-1,-4.5005925E-2],"split_indices":[1,0,4,0,0],"split_type":[0,0,0,0,0],"sum_hessian":[1.5358598E2,1.295985E2,2.3987476E1,1.7741331E1,6.246145E0],"tree_param":{"num_deleted":"0","num_feature":"7","num_nodes":"5","size_leaf_vector":"1"}},{"base_weights":[-1.7272096E-2,-5.175844E-2,1.5411417E0,-4.7835488E-2,2.3875012E0,3.4237354E0,-4.5657378E-2,3.8517456E0,-3.429743E-2,6.459079E-2,4.0370584E0,6.965846E-2,4.2175373E-1],"categories":[],"categories_nodes":[],"categories_segments":[],"categories_sizes":[],"default_left":[0,0,0,0,0,0,0,0,0,0,0,0,0],"id":30,"left_children":[1,-1,3,-1,5,7,-1,9,-1,-1,11,-1,-1],"loss_changes":[1.1967332E2,0E0,6.490179E1,0E0,7.952556E1,3.2769897E1,0E0,7.8472595E0,0E0,0E0,6.9772034E0,0E0,0E0],"parents":[2147483647,0,0,2,2,4,4,5,5,7,7,10,10],"right_children":[2,-1,4,-1,6,8,-1,10,-1,-1,12,-1,-1],"split_conditions":[1.4924335E2,-5.175844E-2,3.5E1,-4.7835488E-2,1.9979364E2,8.9895935E1,-4.5657378E-2,3.7E1,-3.429743E-2,6.459079E-2,2.3157911E1,6.965846E-2,4.2175373E-1],"split_indices":[6,0,2,0,6,4,0,1,0,0,3,0,0],"split_type":[0,0,0,0,0,0,0,0,0,0,0,0,0],"sum_hessian":[1.5146457E2,1.1516116E2,3.63034E1,1.0849718E1,2.545368E1,1.8506905E1,6.946774E0,1.6598272E1,1.9086328E0,1.1521431E0,1.5446129E1,1.0408449E0,1.4405285E1],"tree_param":{"num_deleted":"0","num_feature":"7","num_nodes":"13","size_leaf_vector":"1"}},{"base_weights":[-2.3642238E-3,2.8575203E0,-5.1814076E-2,4.038119E0,-4.4968903E-2,4.1755244E-1,1.10368036E-1],"categories":[],"categories_nodes":[],"categories_segments":[],"categories_sizes":[],"default_left":[0,0,0,0,0,0,0],"id":31,"left_children":[1,3,-1,5,-1,-1,-1],"loss_changes":[2.2807198E2,9.4058334E1,0E0,2.4517517E0,0E0,0E0,0E0],"parents":[2147483647,0,0,1,1,3,3],"right_children":[2,4,-1,6,-1,-1,-1],"split_conditions":[3.231529E1,2.6E1,-5.1814076E-2,2.435564E1,-4.4968903E-2,4.1755244E-1,1.10368036E-1],"split_indices":[4,2,0,3,0,0,0],"split_type":[0,0,0,0,0,0,0],"sum_hessian":[1.5261488E2,2.2624733E1,1.2999014E2,1.6510025E1,6.1147075E0,1.5367501E1,1.1425244E0],"tree_param":{"num_deleted":"0","num_feature":"7","num_nodes":"7","size_leaf_vector":"1"}},{"base_weights":[5.4846395E-2,1.74772E0,-5.176155E-2,-4.4505212E-1,3.772083E0,2.299173E-2,-4.943001E-2,4.2358565E0,-3.5810348E-2,-2.7722588E-2,4.5253596E-1],"categories":[],"categories_nodes":[],"categories_segments":[],"categories_sizes":[],"default_left":[0,0,0,0,0,0,0,0,0,0,0],"id":32,"left_children":[1,3,-1,5,7,-1,-1,9,-1,-1,-1],"loss_changes":[1.5017088E2,1.7547028E2,0E0,7.6810765E-1,4.0713013E1,0E0,0E0,2.539328E1,0E0,0E0,0E0],"parents":[2147483647,0,0,1,1,3,3,4,4,7,7],"right_children":[2,4,-1,6,8,-1,-1,10,-1,-1,-1],"split_conditions":[5.521607E1,5.6E1,-5.176155E-2,2.435564E1,6.9961E1,2.299173E-2,-4.943001E-2,5.964024E1,-3.5810348E-2,-2.7722588E-2,4.5253596E-1],"split_indices":[6,1,0,3,4,0,0,4,0,0,0],"split_type":[0,0,0,0,0,0,0,0,0,0,0],"sum_hessian":[1.5302473E2,3.8151337E1,1.14873405E2,1.868839E1,1.9462946E1,1.0213728E0,1.7667017E1,1.7475105E1,1.9878411E0,1.0559691E0,1.6419136E1],"tree_param":{"num_deleted":"0","num_feature":"7","num_nodes":"11","size_leaf_vector":"1"}},{"base_weights":[-8.495969E-3,-5.1630188E-2,6.903085E-1,2.7057102E0,-5.0955206E-2,4.032702E0,-4.5797236E-2,4.1763216E-1,1.363855E-1],"categories":[],"categories_nodes":[],"categories_segments":[],"categories_sizes":[],"default_left":[0,0,0,0,0,0,0,0,0],"id":33,"left_children":[1,-1,3,5,-1,7,-1,-1,-1],"loss_changes":[5.483414E1,0E0,1.5865219E2,1.0440381E2,0E0,9.3984985E-1,0E0,0E0,0E0],"parents":[2147483647,0,0,2,2,3,3,5,5],"right_children":[2,-1,4,6,-1,8,-1,-1,-1],"split_conditions":[6E1,-5.1630188E-2,2.6E1,1E2,-5.0955206E-2,2.600175E1,-4.5797236E-2,4.1763216E-1,1.363855E-1],"split_indices":[0,0,2,0,0,3,0,0,0],"split_type":[0,0,0,0,0,0,0,0,0],"sum_hessian":[1.5252025E2,8.848286E1,6.403739E1,2.3428907E1,4.0608482E1,1.6312162E1,7.116746E0,1.4943179E1,1.368983E0],"tree_param":{"num_deleted":"0","num_feature":"7","num_nodes":"9","size_leaf_vector":"1"}},{"base_weights":[4.4856854E-3,1.4817413E0,-5.1754076E-2,3.4623635E0,-4.974553E-2,4.0269337E0,-3.743735E-2,-2.935995E-2,4.3375912E-1],"categories":[],"categories_nodes":[],"categories_segments":[],"categories_sizes":[],"default_left":[0,0,0,0,0,0,0,0,0],"id":34,"left_children":[1,3,-1,5,-1,7,-1,-1,-1],"loss_changes":[1.191924E2,1.5992035E2,0E0,4.5471954E1,0E0,2.5135254E1,0E0,0E0,0E0],"parents":[2147483647,0,0,1,1,3,3,5,5],"right_children":[2,4,-1,6,-1,8,-1,-1,-1],"split_conditions":[5.520522E1,4.1E1,-5.1754076E-2,4.1E1,-4.974553E-2,2.5E1,-3.743735E-2,-2.935995E-2,4.3375912E-1],"split_indices":[4,1,0,0,0,2,0,0,0],"split_type":[0,0,0,0,0,0,0,0,0],"sum_hessian":[1.5256676E2,3.935621E1,1.1321054E2,1.9296467E1,2.0059742E1,1.677803E1,2.5184364E0,1.129142E0,1.5648889E1],"tree_param":{"num_deleted":"0","num_feature":"7","num_nodes":"9","size_leaf_vector":"1"}},{"base_weights":[-1.6427929E-2,-2.1270578E-1,3.393121E0,2.9444919E0,-2.9199857E-1,-3.1175181E-2,4.248043E-1,4.450322E-1,-2.7855536E-2,3.162086E-1,-5.075348E-1,3.4664226E0,-3.4904012E-1,-2.8532836E-1,-5.168127E-2,4.4818598E-1,7.2197574E-3,7.052352E-1,-5.03833E-2,2.3283225E-2,-4.2586222E-2,-3.7268095E-2,2.1901827E-1],"categories":[],"categories_nodes":[],"categories_segments":[],"categories_sizes":[],"default_left":[0,0,0,0,0,0,0,0,0,0,0,0,0,0,0,0,0,0,0,0,0,0,0],"id":35,"left_children":[1,3,5,7,9,-1,-1,-1,-1,11,13,15,17,19,-1,-1,-1,21,-1,-1,-1,-1,-1],"loss_changes":[1.0150707E2,3.6745136E1,2.7476608E1,1.8722013E1,1.8610527E1,0E0,0E0,0E0,0E0,7.967637E1,6.756401E-2,2.2492126E1,5.548545E0,5.661405E-1,0E0,0E0,0E0,8.004459E0,0E0,0E0,0E0,0E0,0E0],"parents":[2147483647,0,0,1,1,2,2,3,3,4,4,9,9,10,10,11,11,12,12,13,13,17,17],"right_children":[2,4,6,8,10,-1,-1,-1,-1,12,14,16,18,20,-1,-1,-1,22,-1,-1,-1,-1,-1],"split_conditions":[7.9946795E0,4.672437E0,2.3982897E1,7.301027E1,6.1623135E1,-3.1175181E-2,4.248043E-1,4.450322E-1,-2.7855536E-2,6.1946262E1,6.358337E1,5.8E1,7.1737595E1,5.9341364E0,-5.168127E-2,4.4818598E-1,7.2197574E-3,2.5685766E1,-5.03833E-2,2.3283225E-2,-4.2586222E-2,-3.7268095E-2,2.1901827E-1],"split_indices":[5,5,3,6,4,0,0,0,0,6,4,1,6,5,0,0,0,3,0,0,0,0,0],"split_type":[0,0,0,0,0,0,0,0,0,0,0,0,0,0,0,0,0,0,0,0,0,0,0],"sum_hessian":[1.4960146E2,1.423447E2,7.2567563E0,2.602112E0,1.3974258E2,1.4797006E0,5.7770557E0,1.5139862E0,1.0881258E0,3.644207E1,1.03300514E2,5.619729E0,3.0822342E1,5.4129605E0,9.788755E1,4.078995E0,1.540734E0,3.4908173E0,2.7331526E1,1.0147434E0,4.398217E0,2.4566061E0,1.0342112E0],"tree_param":{"num_deleted":"0","num_feature":"7","num_nodes":"23","size_leaf_vector":"1"}},{"base_weights":[3.0834617E-3,1.3389175E0,-5.1744264E-2,-4.881119E-2,2.234516E0,-4.583147E-2,3.1307502E0,-4.2178787E-2,3.984429E-1],"categories":[],"categories_nodes":[],"categories_segments":[],"categories_sizes":[],"default_left":[0,0,0,0,0,0,0,0,0],"id":36,"left_children":[1,3,-1,-1,5,-1,7,-1,-1],"loss_changes":[1.0768005E2,7.2142136E1,0E0,0E0,7.2191284E1,0E0,6.877864E1,0E0,0E0],"parents":[2147483647,0,0,1,1,4,4,6,6],"right_children":[2,4,-1,-1,6,-1,8,-1,-1],"split_conditions":[6.0951973E1,2.7061796E1,-5.1744264E-2,-4.881119E-2,3.5154263E1,-4.583147E-2,6.9961E1,-4.2178787E-2,3.984429E-1],"split_indices":[6,3,0,0,6,0,4,0,0],"split_type":[0,0,0,0,0,0,0,0,0],"sum_hessian":[1.5286398E2,4.242243E1,1.1044155E2,1.4104368E1,2.831806E1,7.1933885E0,2.1124672E1,4.1907997E0,1.6933872E1],"tree_param":{"num_deleted":"0","num_feature":"7","num_nodes":"9","size_leaf_vector":"1"}},{"base_weights":[1.504061E-2,4.0631714E-1,-5.1831223E-2],"categories":[],"categories_nodes":[],"categories_segments":[],"categories_sizes":[],"default_left":[0,0,0],"id":37,"left_children":[1,-1,-1],"loss_changes":[3.3482495E2,0E0,0E0],"parents":[2147483647,0,0],"right_children":[2,-1,-1],"split_conditions":[3.0920141E1,4.0631714E-1,-5.1831223E-2],"split_indices":[6,0,0],"split_type":[0,0,0],"sum_hessian":[1.5310202E2,1.7052898E1,1.3604912E2],"tree_param":{"num_deleted":"0","num_feature":"7","num_nodes":"3","size_leaf_vector":"1"}},{"base_weights":[3.5788365E-2,4.0756765E-1,-4.533482E-1,7.3949236E-1,-5.1814865E-2,3.8380307E-1,-4.407604E-2],"categories":[],"categories_nodes":[],"categories_segments":[],"categories_sizes":[],"default_left":[0,0,0,0,0,0,0],"id":38,"left_children":[1,-1,3,5,-1,-1,-1],"loss_changes":[3.058192E2,0E0,1.1058899E1,2.9223343E1,0E0,0E0,0E0],"parents":[2147483647,0,0,2,2,3,3],"right_children":[2,-1,4,6,-1,-1,-1],"split_conditions":[1.5E1,4.0756765E-1,1.6E1,2.5E1,-5.1814865E-2,3.8380307E-1,-4.407604E-2],"split_indices":[2,0,2,1,0,0,0],"split_type":[0,0,0,0,0,0,0],"sum_hessian":[1.5282729E2,1.571351E1,1.3711378E2,6.528371E0,1.305854E2,1.1796205E0,5.3487506E0],"tree_param":{"num_deleted":"0","num_feature":"7","num_nodes":"7","size_leaf_vector":"1"}},{"base_weights":[-1.563992E-2,-5.1732313E-2,1.2116687E0,-5.0012525E-2,3.0290039E0,4.465948E-1,-4.500579E-2],"categories":[],"categories_nodes":[],"categories_segments":[],"categories_sizes":[],"default_left":[0,0,0,0,0,0,0],"id":39,"left_children":[1,-1,3,-1,5,-1,-1],"loss_changes":[9.422675E1,0E0,1.3966501E2,0E0,1.1040234E2,0E0,0E0],"parents":[2147483647,0,0,2,2,4,4],"right_children":[2,-1,4,-1,6,-1,-1],"split_conditions":[8.9996155E1,-5.1732313E-2,4.1E1,-5.0012525E-2,7.1E1,4.465948E-1,-4.500579E-2],"split_indices":[4,0,1,0,1,0,0],"split_type":[0,0,0,0,0,0,0],"sum_hessian":[1.51017E2,1.07608635E2,4.3408363E1,2.27265E1,2.0681864E1,1.44358225E1,6.2460403E0],"tree_param":{"num_deleted":"0","num_feature":"7","num_nodes":"7","size_leaf_vector":"1"}},{"base_weights":[-1.2105539E-2,1.06437E0,-4.265485E-1,-3.625728E-1,2.4912958E0,1.3165799E-1,-4.7101742E-1,4.722511E-2,-4.4800738E-1,-4.4029735E-2,3.4388251E0,-1.8657355E-1,-5.1644083E-2,-9.6544804E-4,-4.9396556E-2,-4.1241344E-2,4.633743E-1,-4.1991267E-1,1.2370136E-1,2.1910025E-2,-4.844213E-2],"categories":[],"categories_nodes":[],"categories_segments":[],"categories_sizes":[],"default_left":[0,0,0,0,0,0,0,0,0,0,0,0,0,0,0,0,0,0,0,0,0],"id":40,"left_children":[1,3,5,7,9,-1,11,-1,13,-1,15,17,-1,-1,-1,-1,-1,19,-1,-1,-1],"loss_changes":[6.791152E1,8.706735E1,9.137947E0,1.7829208E0,6.0641296E1,0E0,1.297617E0,0E0,4.0820837E-1,0E0,7.646196E1,5.974513E0,0E0,0E0,0E0,0E0,0E0,7.1852946E-1,0E0,0E0,0E0],"parents":[2147483647,0,0,1,1,2,2,3,3,4,4,6,6,8,8,10,10,11,11,17,17],"right_children":[2,4,6,8,10,-1,12,-1,14,-1,16,18,-1,-1,-1,-1,-1,20,-1,-1,-1],"split_conditions":[5.964024E1,1.00196175E2,5.4983406E0,4.749104E0,5.4E1,1.3165799E-1,6.665953E1,4.722511E-2,1.8E1,-4.4029735E-2,2.4968817E1,1.6449704E2,-5.1644083E-2,-9.6544804E-4,-4.9396556E-2,-4.1241344E-2,4.633743E-1,5.9190454E0,1.2370136E-1,2.1910025E-2,-4.844213E-2],"split_indices":[4,6,5,5,1,0,4,0,2,0,4,6,0,0,0,0,0,5,0,0,0],"split_type":[0,0,0,0,0,0,0,0,0,0,0,0,0,0,0,0,0,0,0,0,0],"sum_hessian":[1.5020332E2,4.1317337E1,1.08885994E2,2.1031496E1,2.0285843E1,1.9970553E0,1.0688894E2,1.532179E0,1.9499317E1,5.085858E0,1.5199985E1,1.5422116E1,9.146682E1,1.9651959E0,1.753412E1,3.754389E0,1.1445596E1,1.3856018E1,1.5660979E0,1.0507723E0,1.2805245E1],"tree_param":{"num_deleted":"0","num_feature":"7","num_nodes":"21","size_leaf_vector":"1"}},{"base_weights":[-2.1063779E-2,9.8241585E-1,-5.1708292E-2,2.617387E0,-5.0319117E-2,-4.4348657E-2,3.555278E0,4.073657E-1,-3.5520278E-2],"categories":[],"categories_nodes":[],"categories_segments":[],"categories_sizes":[],"default_left":[0,0,0,0,0,0,0,0,0],"id":41,"left_children":[1,3,-1,5,-1,-1,7,-1,-1],"loss_changes":[7.6841835E1,1.2537332E2,0E0,7.184219E1,0E0,0E0,3.9650604E1,0E0,0E0],"parents":[2147483647,0,0,1,1,3,3,6,6],"right_children":[2,4,-1,6,-1,-1,8,-1,-1],"split_conditions":[3.1E1,2.497256E1,-5.1708292E-2,3.5E1,-5.0319117E-2,-4.4348657E-2,4.1E1,4.073657E-1,-3.5520278E-2],"split_indices":[1,3,0,2,0,0,0,0,0],"split_type":[0,0,0,0,0,0,0,0,0],"sum_hessian":[1.5235933E2,5.0074562E1,1.0228477E2,2.3476208E1,2.6598356E1,5.62987E0,1.7846336E1,1.5720655E1,2.1256816E0],"tree_param":{"num_deleted":"0","num_feature":"7","num_nodes":"9","size_leaf_vector":"1"}},{"base_weights":[8.546767E-3,-4.0906617E-1,3.3948877E0,-5.180019E-2,9.7153664E-1,4.3270874E-1,-3.9943233E-2,-4.269366E-2,2.0975308E0,3.2183182E-1,-3.340577E-2],"categories":[],"categories_nodes":[],"categories_segments":[],"categories_sizes":[],"default_left":[0,0,0,0,0,0,0,0,0,0,0],"id":42,"left_children":[1,3,5,-1,7,-1,-1,-1,9,-1,-1],"loss_changes":[2.1715564E2,2.1064968E1,6.1355118E1,0E0,1.7187624E1,0E0,0E0,0E0,1.7156141E1,0E0,0E0],"parents":[2147483647,0,0,1,1,2,2,4,4,8,8],"right_children":[2,4,6,-1,8,-1,-1,-1,10,-1,-1],"split_conditions":[1.9979364E2,1.8226881E2,8.497849E1,-5.180019E-2,7.995151E1,4.3270874E-1,-3.9943233E-2,-4.269366E-2,8.497849E1,3.2183182E-1,-3.340577E-2],"split_indices":[6,6,4,0,4,0,0,0,4,0,0],"split_type":[0,0,0,0,0,0,0,0,0,0,0],"sum_hessian":[1.5157388E2,1.357162E2,1.5857696E1,1.2636984E2,9.346349E0,1.2617403E1,3.2402923E0,4.445687E0,4.900662E0,3.1330194E0,1.7676423E0],"tree_param":{"num_deleted":"0","num_feature":"7","num_nodes":"11","size_leaf_vector":"1"}},{"base_weights":[2.848462E-3,1.3605003E0,-5.174617E-2,-4.9555667E-2,2.7976382E0,4.0633526E-1,-4.5442175E-2],"categories":[],"categories_nodes":[],"categories_segments":[],"categories_sizes":[],"default_left":[0,0,0,0,0,0,0],"id":43,"left_children":[1,3,-1,-1,5,-1,-1],"loss_changes":[1.0942412E2,1.1586428E2,0E0,0E0,1.0202937E2,0E0,0E0],"parents":[2147483647,0,0,1,1,4,4],"right_children":[2,4,-1,-1,6,-1,-1],"split_conditions":[5.9844994E1,6.9E1,-5.174617E-2,-4.9555667E-2,2.7022692E1,4.0633526E-1,-4.5442175E-2],"split_indices":[6,0,0,0,3,0,0],"split_type":[0,0,0,0,0,0,0],"sum_hessian":[1.5290727E2,4.1917255E1,1.1099001E2,1.857845E1,2.3338806E1,1.6620552E1,6.718256E0],"tree_param":{"num_deleted":"0","num_feature":"7","num_nodes":"7","size_leaf_vector":"1"}},{"base_weights":[-2.0289527E-2,-5.1647663E-2,2.0548415E0,-4.5199376E-2,2.7968198E-1],"categories":[],"categories_nodes":[],"categories_segments":[],"categories_sizes":[],"default_left":[0,0,0,0,0],"id":44,"left_children":[1,-1,3,-1,-1],"loss_changes":[1.568654E2,0E0,5.594957E1,0E0,0E0],"parents":[2147483647,0,0,2,2],"right_children":[2,-1,4,-1,-1],"split_conditions":[1.2E2,-5.1647663E-2,8.4134186E1,-4.5199376E-2,2.7968198E-1],"split_indices":[1,0,4,0,0],"split_type":[0,0,0,0,0],"sum_hessian":[1.5031708E2,1.21916565E2,2.8400507E1,6.5754895E0,2.1825018E1],"tree_param":{"num_deleted":"0","num_feature":"7","num_nodes":"5","size_leaf_vector":"1"}},{"base_weights":[-9.08749E-3,-5.1568188E-2,1.0494729E0,-5.014146E-2,2.7911898E-1],"categories":[],"categories_nodes":[],"categories_segments":[],"categories_sizes":[],"default_left":[0,0,0,0,0],"id":45,"left_children":[1,-1,3,-1,-1],"loss_changes":[8.194266E1,0E0,1.3500363E2,0E0,0E0],"parents":[2147483647,0,0,2,2],"right_children":[2,-1,4,-1,-1],"split_conditions":[7E1,-5.1568188E-2,6.9E1,-5.014146E-2,2.7911898E-1],"split_indices":[1,0,0,0,0],"split_type":[0,0,0,0,0],"sum_hessian":[1.5079454E2,1.0233366E2,4.8460888E1,2.6011461E1,2.2449427E1],"tree_param":{"num_deleted":"0","num_feature":"7","num_nodes":"5","size_leaf_vector":"1"}},{"base_weights":[-1.9588734E-3,6.151096E-1,-5.144952E-2,-5.038422E-2,1.4757172E0,-4.76083E-2,2.213499E0,-4.0470243E-2,2.5751784E0,2.745873E0,-3.030177E-2,2.9155076E-1,-2.8557494E-2],"categories":[],"categories_nodes":[],"categories_segments":[],"categories_sizes":[],"default_left":[0,0,0,0,0,0,0,0,0,0,0,0,0],"id":46,"left_children":[1,3,-1,-1,5,-1,7,-1,9,11,-1,-1,-1],"loss_changes":[4.8352406E1,6.754466E1,0E0,0E0,5.7884544E1,0E0,2.8330276E1,0E0,1.3337906E1,1.3240829E1,0E0,0E0,0E0],"parents":[2147483647,0,0,1,1,4,4,6,6,8,8,9,9],"right_children":[2,4,-1,-1,6,-1,8,-1,10,12,-1,-1,-1],"split_conditions":[7.503248E1,5.9844994E1,-5.144952E-2,-5.038422E-2,6.4988956E0,-4.76083E-2,2.4882444E1,-4.0470243E-2,7.782051E0,7.131343E1,-3.030177E-2,2.9155076E-1,-2.8557494E-2],"split_indices":[6,6,0,0,5,0,3,0,5,4,0,0,0],"split_type":[0,0,0,0,0,0,0,0,0,0,0,0,0],"sum_hessian":[1.5088268E2,6.8369286E1,8.251338E1,2.990357E1,3.8465717E1,1.06488695E1,2.7816849E1,3.3617961E0,2.4455051E1,2.3129316E1,1.3257366E0,2.1939846E1,1.1894687E0],"tree_param":{"num_deleted":"0","num_feature":"7","num_nodes":"13","size_leaf_vector":"1"}},{"base_weights":[-3.6835156E-2,2.5014217E0,-5.1662743E-2,-3.6854047E-2,2.836363E-1],"categories":[],"categories_nodes":[],"categories_segments":[],"categories_sizes":[],"default_left":[0,0,0,0,0],"id":47,"left_children":[1,3,-1,-1,-1],"loss_changes":[1.846039E2,2.421225E1,0E0,0E0,0E0],"parents":[2147483647,0,0,1,1],"right_children":[2,4,-1,-1,-1],"split_conditions":[2.0746193E1,2.6E1,-5.1662743E-2,-3.6854047E-2,2.836363E-1],"split_indices":[4,2,0,0,0],"split_type":[0,0,0,0,0],"sum_hessian":[1.495224E2,2.3100374E1,1.26422035E2,2.403712E0,2.0696661E1],"tree_param":{"num_deleted":"0","num_feature":"7","num_nodes":"5","size_leaf_vector":"1"}},{"base_weights":[-3.569571E-2,-2.8219387E-1,2.853268E0,-5.065515E-1,4.7787526E-1,3.0096486E-1,6.679594E-2,-5.1571246E-2,-1.2715003E-1,-4.957124E-2,2.1167078E0,2.3317536E-2,-3.379739E-2,2.916971E-1,-3.8477927E-2],"categories":[],"categories_nodes":[],"categories_segments":[],"categories_sizes":[],"default_left":[0,0,0,0,0,0,0,0,0,0,0,0,0,0,0],"id":48,"left_children":[1,3,5,7,9,-1,-1,-1,11,-1,13,-1,-1,-1,-1],"loss_changes":[1.0683742E2,2.3791912E1,2.0207138E0,3.067112E-1,5.2088486E1,0E0,0E0,0E0,3.7146664E-1,0E0,2.5367031E1,0E0,0E0,0E0,0E0],"parents":[2147483647,0,0,1,1,2,2,3,3,4,4,8,8,10,10],"right_children":[2,4,6,8,10,-1,-1,-1,12,-1,14,-1,-1,-1,-1],"split_conditions":[9.495032E1,9.073892E1,6.3860216E0,9.026457E1,1.2934494E2,3.0096486E-1,6.679594E-2,-5.1571246E-2,2.3E1,-4.957124E-2,3.1E1,2.3317536E-2,-3.379739E-2,2.916971E-1,-3.8477927E-2],"split_indices":[4,4,5,4,6,0,0,0,1,0,1,0,0,0,0],"split_type":[0,0,0,0,0,0,0,0,0,0,0,0,0,0,0],"sum_hessian":[1.4789572E2,1.371001E2,1.079562E1,1.0611157E2,3.0988533E1,9.722648E0,1.0729723E0,1.03259026E2,2.8525467E0,1.9877405E1,1.1111127E1,1.013804E0,1.8387427E0,8.292225E0,2.8189018E0],"tree_param":{"num_deleted":"0","num_feature":"7","num_nodes":"15","size_leaf_vector":"1"}},{"base_weights":[2.106413E-2,-5.154096E-2,9.406179E-1,2.8381617E0,-5.04892E-2,-3.307736E-2,3.0966815E-1],"categories":[],"categories_nodes":[],"categories_segments":[],"categories_sizes":[],"default_left":[0,0,0,0,0,0,0],"id":49,"left_children":[1,-1,3,5,-1,-1,-1],"loss_changes":[7.5064766E1,0E0,1.5519159E2,2.1004929E1,0E0,0E0,0E0],"parents":[2147483647,0,0,2,2,3,3],"right_children":[2,-1,4,6,-1,-1,-1],"split_conditions":[8E1,-5.154096E-2,6.9961E1,1.0998255E2,-5.04892E-2,-3.307736E-2,3.0966815E-1],"split_indices":[0,0,4,6,0,0,0],"split_type":[0,0,0,0,0,0,0],"sum_hessian":[1.5018079E2,9.51242E1,5.505658E1,2.3389448E1,3.1667131E1,1.7430955E0,2.1646353E1],"tree_param":{"num_deleted":"0","num_feature":"7","num_nodes":"7","size_leaf_vector":"1"}},{"base_weights":[1.94798E-2,-5.1622152E-2,1.7173874E0,2.9093397E0,-4.8266597E-2,5.6924958E-2,3.0138737E-1],"categories":[],"categories_nodes":[],"categories_segments":[],"categories_sizes":[],"default_left":[0,0,0,0,0,0,0],"id":50,"left_children":[1,-1,3,5,-1,-1,-1],"loss_changes":[1.3872565E2,0E0,9.7321365E1,4.1223907E0,0E0,0E0,0E0],"parents":[2147483647,0,0,2,2,3,3],"right_children":[2,-1,4,6,-1,-1,-1],"split_conditions":[1E2,-5.1622152E-2,2.6E1,3.6E1,-4.8266597E-2,5.6924958E-2,3.0138737E-1],"split_indices":[0,0,2,1,0,0,0],"split_type":[0,0,0,0,0,0,0],"sum_hessian":[1.5054291E2,1.1496624E2,3.557666E1,2.2865902E1,1.2710757E1,1.2533832E0,2.161252E1],"tree_param":{"num_deleted":"0","num_feature":"7","num_nodes":"7","size_leaf_vector":"1"}},{"base_weights":[2.9948678E-2,-5.1647663E-2,2.1631176E0,2.7824375E-1,-4.4531494E-2],"categories":[],"categories_nodes":[],"categories_segments":[],"categories_sizes":[],"default_left":[0,0,0,0,0],"id":51,"left_children":[1,-1,3,-1,-1],"loss_changes":[1.7990942E2,0E0,5.2080414E1,0E0,0E0],"parents":[2147483647,0,0,2,2],"right_children":[2,-1,4,-1,-1],"split_conditions":[1.2E2,-5.1647663E-2,8.4134186E1,2.7824375E-1,-4.4531494E-2],"split_indices":[1,0,4,0,0],"split_type":[0,0,0,0,0],"sum_hessian":[1.5238841E2,1.21916565E2,3.0471851E1,2.4571203E1,5.9006476E0],"tree_param":{"num_deleted":"0","num_feature":"7","num_nodes":"5","size_leaf_vector":"1"}},{"base_weights":[-1.625488E-2,-5.158891E-2,1.2715975E0,-4.7492594E-2,1.8445759E0,2.4509134E0,-4.5201156E-2,2.6790771E0,-3.3685703E-2,1.3617083E-2,2.8169892E0,8.023498E-2,2.9327592E-1],"categories":[],"categories_nodes":[],"categories_segments":[],"categories_sizes":[],"default_left":[0,0,0,0,0,0,0,0,0,0,0,0,0],"id":52,"left_children":[1,-1,3,-1,5,7,-1,9,-1,-1,11,-1,-1],"loss_changes":[9.762354E1,0E0,4.3318016E1,0E0,4.586225E1,1.7174438E1,0E0,7.948456E0,0E0,0E0,2.8912964E0,0E0,0E0],"parents":[2147483647,0,0,2,2,4,4,5,5,7,7,10,10],"right_children":[2,-1,4,-1,6,8,-1,10,-1,-1,12,-1,-1],"split_conditions":[1.4924335E2,-5.158891E-2,3.5E1,-4.7492594E-2,1.9979364E2,8.9895935E1,-4.5201156E-2,6.002996E0,-3.3685703E-2,1.3617083E-2,7.131343E1,8.023498E-2,2.9327592E-1],"split_indices":[6,0,2,0,6,4,0,5,0,0,4,0,0],"split_type":[0,0,0,0,0,0,0,0,0,0,0,0,0],"sum_hessian":[1.4969823E2,1.0828678E2,4.1411438E1,1.0271996E1,3.1139442E1,2.4582146E1,6.5572977E0,2.275848E1,1.8236654E0,1.2730271E0,2.1485453E1,1.5985124E0,1.988694E1],"tree_param":{"num_deleted":"0","num_feature":"7","num_nodes":"13","size_leaf_vector":"1"}},{"base_weights":[-2.2796334E-3,2.1404574E0,-5.1648427E-2,2.787617E0,-4.4495996E-2,2.8696212E-1,6.237317E-2],"categories":[],"categories_nodes":[],"categories_segments":[],"categories_sizes":[],"default_left":[0,0,0,0,0,0,0],"id":53,"left_children":[1,3,-1,5,-1,-1,-1],"loss_changes":[1.6842561E2,5.074005E1,0E0,2.433197E0,0E0,0E0,0E0],"parents":[2147483647,0,0,1,1,3,3],"right_children":[2,4,-1,6,-1,-1,-1],"split_conditions":[3.231529E1,2.6E1,-5.1648427E-2,2.4968817E1,-4.4495996E-2,2.8696212E-1,6.237317E-2],"split_indices":[4,2,0,4,0,0,0],"split_type":[0,0,0,0,0,0,0],"sum_hessian":[1.5085995E2,2.858423E1,1.2227573E2,2.2799137E1,5.7850924E0,2.1652441E1,1.1466969E0],"tree_param":{"num_deleted":"0","num_feature":"7","num_nodes":"7","size_leaf_vector":"1"}},{"base_weights":[5.0540455E-2,1.4110804E0,-5.1593352E-2,-4.9221255E-2,2.593638E0,2.8292496E0,-3.5522234E-2,-3.0018574E-2,3.0000982E-1],"categories":[],"categories_nodes":[],"categories_segments":[],"categories_sizes":[],"default_left":[0,0,0,0,0,0,0,0,0],"id":54,"left_children":[1,3,-1,-1,5,7,-1,-1,-1],"loss_changes":[1.1899419E2,1.0340877E2,0E0,0E0,2.0561234E1,1.4895859E1,0E0,0E0,0E0],"parents":[2147483647,0,0,1,1,4,4,5,5],"right_children":[2,4,-1,-1,6,8,-1,-1,-1],"split_conditions":[5.521607E1,5.5E1,-5.1593352E-2,-4.9221255E-2,6.9961E1,5.964024E1,-3.5522234E-2,-3.0018574E-2,3.0000982E-1],"split_indices":[6,1,0,0,4,4,0,0,0],"split_type":[0,0,0,0,0,0,0,0,0],"sum_hessian":[1.5245085E2,4.4376865E1,1.0807399E2,1.7229784E1,2.714708E1,2.5176088E1,1.9709896E0,1.2641213E0,2.3911968E1],"tree_param":{"num_deleted":"0","num_feature":"7","num_nodes":"9","size_leaf_vector":"1"}},{"base_weights":[-8.101934E-3,-5.1455665E-2,6.16145E-1,2.0528276E0,-5.0738778E-2,2.7892852E0,-4.5351535E-2,2.863129E-1,6.605201E-2],"categories":[],"categories_nodes":[],"categories_segments":[],"categories_sizes":[],"default_left":[0,0,0,0,0,0,0,0,0],"id":55,"left_children":[1,-1,3,5,-1,7,-1,-1,-1],"loss_changes":[4.8275417E1,0E0,1.1145088E2,5.7036736E1,0E0,1.8018951E0,0E0,0E0,0E0],"parents":[2147483647,0,0,2,2,3,3,5,5],"right_children":[2,-1,4,6,-1,8,-1,-1,-1],"split_conditions":[6E1,-5.1455665E-2,2.6E1,1E2,-5.0738778E-2,2.6105513E1,-4.5351535E-2,2.863129E-1,6.605201E-2],"split_indices":[0,0,2,0,0,3,0,0,0],"split_type":[0,0,0,0,0,0,0,0,0],"sum_hessian":[1.5069366E2,8.329319E1,6.740047E1,2.9215252E1,3.818522E1,2.249306E1,6.7221937E0,2.1405558E1,1.0875024E0],"tree_param":{"num_deleted":"0","num_feature":"7","num_nodes":"9","size_leaf_vector":"1"}},{"base_weights":[3.2219905E-3,1.2240028E0,-5.1584583E-2,2.4578183E0,-4.9475882E-2,2.750774E0,-3.681904E-2,-2.8896127E-2,2.9066828E-1],"categories":[],"categories_nodes":[],"categories_segments":[],"categories_sizes":[],"default_left":[0,0,0,0,0,0,0,0,0],"id":56,"left_children":[1,3,-1,5,-1,7,-1,-1,-1],"loss_changes":[9.705723E1,9.811898E1,0E0,2.3173782E1,0E0,1.2390167E1,0E0,0E0,0E0],"parents":[2147483647,0,0,1,1,3,3,5,5],"right_children":[2,4,-1,6,-1,8,-1,-1,-1],"split_conditions":[5.520522E1,4.1E1,-5.1584583E-2,4.1E1,-4.9475882E-2,2.5E1,-3.681904E-2,-2.8896127E-2,2.9066828E-1],"split_indices":[4,1,0,0,0,2,0,0,0],"split_type":[0,0,0,0,0,0,0,0,0],"sum_hessian":[1.5117088E2,4.4695274E1,1.0647562E2,2.5767818E1,1.8927456E1,2.337164E1,2.3961782E0,1.0986183E0,2.2273022E1],"tree_param":{"num_deleted":"0","num_feature":"7","num_nodes":"9","size_leaf_vector":"1"}},{"base_weights":[-1.12005435E-2,-2.027503E-1,2.4821255E0,2.3631587E0,-2.8302228E-1,-3.056028E-2,2.943199E-1,3.2899925E-1,-2.7224794E-2,3.0108026E-1,-5.052637E-1,2.5411747E0,-3.3958888E-1,-2.768081E-1,-5.150769E-2,3.0074653E-1,-2.7842138E-2,6.6849947E-1,-5.0134342E-2,2.3686757E-2,-4.214325E-2,-3.6704138E-2,1.9006549E-1],"categories":[],"categories_nodes":[],"categories_segments":[],"categories_sizes":[],"default_left":[0,0,0,0,0,0,0,0,0,0,0,0,0,0,0,0,0,0,0,0,0,0,0],"id":57,"left_children":[1,3,5,7,9,-1,-1,-1,-1,11,13,15,17,19,-1,-1,-1,21,-1,-1,-1,-1,-1],"loss_changes":[7.123683E1,2.9187841E1,1.4577873E1,1.1416372E1,1.7696756E1,0E0,0E0,0E0,0E0,5.5222973E1,7.774544E-2,1.2067467E1,5.2817764E0,5.611147E-1,0E0,0E0,0E0,6.5964317E0,0E0,0E0,0E0,0E0,0E0],"parents":[2147483647,0,0,1,1,2,2,3,3,4,4,9,9,10,10,11,11,12,12,13,13,17,17],"right_children":[2,4,6,8,10,-1,-1,-1,-1,12,14,16,18,20,-1,-1,-1,22,-1,-1,-1,-1,-1],"split_conditions":[7.9946795E0,4.672437E0,2.3982897E1,7.301027E1,6.1623135E1,-3.056028E-2,2.943199E-1,3.2899925E-1,-2.7224794E-2,6.1946262E1,6.358337E1,5.9E1,7.1737595E1,3.9E1,-5.150769E-2,3.0074653E-1,-2.7842138E-2,2.5685766E1,-5.0134342E-2,2.3686757E-2,-4.214325E-2,-3.6704138E-2,1.9006549E-1],"split_indices":[5,5,3,6,4,0,0,0,0,6,4,1,6,1,0,0,0,3,0,0,0,0,0],"split_type":[0,0,0,0,0,0,0,0,0,0,0,0,0,0,0,0,0,0,0,0,0,0,0],"sum_hessian":[1.471034E2,1.374616E2,9.641803E0,3.307192E0,1.341544E2,1.4162297E0,8.225573E0,2.2629604E0,1.0442317E0,3.6877342E1,9.7277054E1,7.541635E0,2.9335705E1,5.2093253E0,9.206773E1,6.4142494E0,1.1273859E0,3.6230848E0,2.571262E1,1.0043328E0,4.2049923E0,2.3501022E0,1.2729826E0],"tree_param":{"num_deleted":"0","num_feature":"7","num_nodes":"23","size_leaf_vector":"1"}},{"base_weights":[2.0466459E-3,1.1222689E0,-5.1574957E-2,1.7438935E0,-4.8476737E-2,-4.7859497E-2,2.809935E-1],"categories":[],"categories_nodes":[],"categories_segments":[],"categories_sizes":[],"default_left":[0,0,0,0,0,0,0],"id":58,"left_children":[1,3,-1,5,-1,-1,-1],"loss_changes":[8.897252E1,4.928286E1,0E0,8.4696915E1,0E0,0E0,0E0],"parents":[2147483647,0,0,1,1,3,3],"right_children":[2,4,-1,6,-1,-1,-1],"split_conditions":[6.0951973E1,2.6E1,-5.1574957E-2,6.9961E1,-4.8476737E-2,-4.7859497E-2,2.809935E-1],"split_indices":[6,2,0,4,0,0,0],"split_type":[0,0,0,0,0,0,0],"sum_hessian":[1.5139064E2,4.748727E1,1.03903366E2,3.4180576E1,1.3306694E1,1.1258938E1,2.2921637E1],"tree_param":{"num_deleted":"0","num_feature":"7","num_nodes":"7","size_leaf_vector":"1"}},{"base_weights":[1.3713173E-2,2.7897716E-1,-5.166657E-2],"categories":[],"categories_nodes":[],"categories_segments":[],"categories_sizes":[],"default_left":[0,0,0],"id":59,"left_children":[1,-1,-1],"loss_changes":[2.2613458E2,0E0,0E0],"parents":[2147483647,0,0],"right_children":[2,-1,-1],"split_conditions":[3.0920141E1,2.7897716E-1,-5.166657E-2],"split_indices":[6,0,0],"split_type":[0,0,0],"sum_hessian":[1.5160722E2,2.3635675E1,1.2797156E2],"tree_param":{"num_deleted":"0","num_feature":"7","num_nodes":"3","size_leaf_vector":"1"}},{"base_weights":[3.4776524E-2,2.7966082E-1,-4.4831315E-1,6.9822985E-1,-5.1648963E-2,2.9946837E-1,-4.3576185E-2],"categories":[],"categories_nodes":[],"categories_segments":[],"categories_sizes":[],"default_left":[0,0,0,0,0,0,0],"id":60,"left_children":[1,-1,3,5,-1,-1,-1],"loss_changes":[2.045834E2,0E0,1.0566965E1,2.1496317E1,0E0,0E0,0E0],"parents":[2147483647,0,0,2,2,3,3],"right_children":[2,-1,4,6,-1,-1,-1],"split_conditions":[1.5E1,2.7966082E-1,1.6E1,2.5E1,-5.1648963E-2,2.9946837E-1,-4.3576185E-2],"split_indices":[2,0,2,1,0,0,0],"split_type":[0,0,0,0,0,0,0],"sum_hessian":[1.5139676E2,2.182632E1,1.2957045E2,6.7534986E0,1.2281695E2,1.6900775E0,5.063421E0],"tree_param":{"num_deleted":"0","num_feature":"7","num_nodes":"7","size_leaf_vector":"1"}},{"base_weights":[-1.5566888E-2,-5.1562246E-2,1.0255796E0,-4.9755022E-2,2.2225316E0,2.9655132E-1,-4.4531357E-2],"categories":[],"categories_nodes":[],"categories_segments":[],"categories_sizes":[],"default_left":[0,0,0,0,0,0,0],"id":61,"left_children":[1,-1,3,-1,5,-1,-1],"loss_changes":[7.8808304E1,0E0,9.065434E1,0E0,5.620099E1,0E0,0E0],"parents":[2147483647,0,0,2,2,4,4],"right_children":[2,-1,4,-1,6,-1,-1],"split_conditions":[8.9996155E1,-5.1562246E-2,4.1E1,-4.9755022E-2,7.1E1,2.9655132E-1,-4.4531357E-2],"split_indices":[4,0,1,0,1,0,0],"split_type":[0,0,0,0,0,0,0],"sum_hessian":[1.4935501E2,1.0123654E2,4.811847E1,2.1431303E1,2.6687166E1,2.0786617E1,5.900548E0],"tree_param":{"num_deleted":"0","num_feature":"7","num_nodes":"7","size_leaf_vector":"1"}},{"base_weights":[-1.032754E-2,9.113135E-1,-4.2013526E-1,-3.5449216E-1,1.8943248E0,1.1693193E0,-4.6672934E-1,4.446717E-2,-4.4299775E-1,-4.3493655E-2,2.4379964E0,2.1498692E-1,-2.881786E-2,-1.7446321E-1,-5.1468313E-2,-6.980096E-4,-4.91087E-2,-4.067705E-2,3.0279297E-1,-4.1349775E-1,1.11882225E-1,2.1366632E-2,-4.8099052E-2],"categories":[],"categories_nodes":[],"categories_segments":[],"categories_sizes":[],"default_left":[0,0,0,0,0,0,0,0,0,0,0,0,0,0,0,0,0,0,0,0,0,0,0],"id":62,"left_children":[1,3,5,7,9,11,13,-1,15,-1,17,-1,-1,19,-1,-1,-1,-1,-1,21,-1,-1,-1],"loss_changes":[5.6841656E1,5.831355E1,8.259567E0,1.6888382E0,3.428031E1,5.2666326E0,1.3384438E0,0E0,4.0523386E-1,0E0,3.717901E1,0E0,0E0,5.370645E0,0E0,0E0,0E0,0E0,0E0,7.0087504E-1,0E0,0E0,0E0],"parents":[2147483647,0,0,1,1,2,2,3,3,4,4,5,5,6,6,8,8,10,10,13,13,19,19],"right_children":[2,4,6,8,10,12,14,-1,16,-1,18,-1,-1,20,-1,-1,-1,-1,-1,22,-1,-1,-1],"split_conditions":[5.964024E1,1.00196175E2,5.4983406E0,4.749104E0,5.4E1,4.1E1,6.665953E1,4.446717E-2,1.8E1,-4.3493655E-2,2.4968817E1,2.1498692E-1,-2.881786E-2,1.6449704E2,-5.1468313E-2,-6.980096E-4,-4.91087E-2,-4.067705E-2,3.0279297E-1,5.9190454E0,1.11882225E-1,2.1366632E-2,-4.8099052E-2],"split_indices":[4,6,5,5,1,0,4,0,2,0,4,0,0,6,0,0,0,0,0,5,0,0,0],"split_type":[0,0,0,0,0,0,0,0,0,0,0,0,0,0,0,0,0,0,0,0,0,0,0],"sum_hessian":[1.4848222E2,4.5324806E1,1.0315742E2,2.009204E1,2.5232767E1,2.2516446E0,1.0090578E2,1.6020507E0,1.8489988E1,4.812876E0,2.0419891E1,1.0620775E0,1.1895671E0,1.4876356E1,8.602942E1,1.9504763E0,1.653951E1,3.5605836E0,1.6859308E1,1.312987E1,1.7464857E0,1.0652709E0,1.20646E1],"tree_param":{"num_deleted":"0","num_feature":"7","num_nodes":"23","size_leaf_vector":"1"}},{"base_weights":[-2.0852061E-2,8.5010564E-1,-5.1537048E-2,1.9870601E0,-5.0071355E-2,-4.386915E-2,2.5248442E0,2.7947858E-1,-3.4880396E-2],"categories":[],"categories_nodes":[],"categories_segments":[],"categories_sizes":[],"default_left":[0,0,0,0,0,0,0,0,0],"id":63,"left_children":[1,3,-1,5,-1,-1,7,-1,-1],"loss_changes":[6.567875E1,8.582605E1,0E0,4.0495277E1,0E0,0E0,2.0260712E1,0E0,0E0],"parents":[2147483647,0,0,1,1,3,3,6,6],"right_children":[2,4,-1,6,-1,-1,8,-1,-1],"split_conditions":[3.1E1,2.497256E1,-5.1537048E-2,3.5E1,-5.0071355E-2,-4.386915E-2,4.1E1,2.7947858E-1,-3.4880396E-2],"split_indices":[1,3,0,2,0,0,0,0,0],"split_type":[0,0,0,0,0,0,0,0,0],"sum_hessian":[1.504742E2,5.4235058E1,9.623914E1,2.9192976E1,2.5042082E1,5.331E0,2.3861977E1,2.1838022E1,2.0239534E0],"tree_param":{"num_deleted":"0","num_feature":"7","num_nodes":"9","size_leaf_vector":"1"}},{"base_weights":[9.036641E-3,-5.1633608E-2,1.9712286E0,-4.3856002E-2,2.4612384E0,-3.8888004E-2,2.8271847E0,2.9303494E-1,5.688065E-2],"categories":[],"categories_nodes":[],"categories_segments":[],"categories_sizes":[],"default_left":[0,0,0,0,0,0,0,0,0],"id":64,"left_children":[1,-1,3,-1,5,-1,7,-1,-1],"loss_changes":[1.5662161E2,0E0,3.8967827E1,0E0,2.9068008E1,0E0,3.8981323E0,0E0,0E0],"parents":[2147483647,0,0,2,2,4,4,6,6],"right_children":[2,-1,4,-1,6,-1,8,-1,-1],"split_conditions":[1.8226881E2,-5.1633608E-2,5.7E1,-4.3856002E-2,7.995151E1,-3.8888004E-2,8.485936E1,2.9303494E-1,5.688065E-2],"split_indices":[6,0,0,0,4,0,4,0,0],"split_type":[0,0,0,0,0,0,0,0,0],"sum_hessian":[1.4994237E2,1.1885583E2,3.1086538E1,5.270767E0,2.5815771E1,2.9303663E0,2.2885405E1,2.1601103E1,1.2843024E0],"tree_param":{"num_deleted":"0","num_feature":"7","num_nodes":"9","size_leaf_vector":"1"}},{"base_weights":[1.8942524E-3,1.1409956E0,-5.157701E-2,-4.9272776E-2,2.0989306E0,2.7898285E-1,-4.497966E-2],"categories":[],"categories_nodes":[],"categories_segments":[],"categories_sizes":[],"default_left":[0,0,0,0,0,0,0],"id":65,"left_children":[1,3,-1,-1,5,-1,-1],"loss_changes":[9.041013E1,7.600696E1,0E0,0E0,5.476703E1,0E0,0E0],"parents":[2147483647,0,0,1,1,4,4],"right_children":[2,4,-1,-1,6,-1,-1],"split_conditions":[5.9844994E1,6.9E1,-5.157701E-2,-4.9272776E-2,2.7022692E1,2.7898285E-1,-4.497966E-2],"split_indices":[6,0,0,0,3,0,0],"split_type":[0,0,0,0,0,0,0],"sum_hessian":[1.5132472E2,4.6905895E1,1.0441883E2,1.751697E1,2.9388926E1,2.304688E1,6.342045E0],"tree_param":{"num_deleted":"0","num_feature":"7","num_nodes":"7","size_leaf_vector":"1"}},{"base_weights":[-1.9778898E-2,-5.148979E-2,1.6703569E0,-4.474535E-2,2.1617906E-1],"categories":[],"categories_nodes":[],"categories_segments":[],"categories_sizes":[],"default_left":[0,0,0,0,0],"id":66,"left_children":[1,-1,3,-1,-1],"loss_changes":[1.25156136E2,0E0,3.623813E1,0E0,0E0],"parents":[2147483647,0,0,2,2],"right_children":[2,-1,4,-1,-1],"split_conditions":[1.2E2,-5.148979E-2,8.4134186E1,-4.474535E-2,2.1617906E-1],"split_indices":[1,0,4,0,0],"split_type":[0,0,0,0,0],"sum_hessian":[1.4753412E2,1.1464473E2,3.2889393E1,6.211354E0,2.6678041E1],"tree_param":{"num_deleted":"0","num_feature":"7","num_nodes":"5","size_leaf_vector":"1"}},{"base_weights":[-9.181934E-3,-5.1405694E-2,9.188024E-1,-4.990018E-2,2.1570356E-1],"categories":[],"categories_nodes":[],"categories_segments":[],"categories_sizes":[],"default_left":[0,0,0,0,0],"id":67,"left_children":[1,-1,3,-1,-1],"loss_changes":[7.035298E1,0E0,9.397005E1,0E0,0E0],"parents":[2147483647,0,0,2,2],"right_children":[2,-1,4,-1,-1],"split_conditions":[7E1,-5.1405694E-2,6.9E1,-4.990018E-2,2.1570356E-1],"split_indices":[1,0,0,0,0],"split_type":[0,0,0,0,0],"sum_hessian":[1.4815317E2,9.623956E1,5.1913612E1,2.4480225E1,2.7433388E1],"tree_param":{"num_deleted":"0","num_feature":"7","num_nodes":"5","size_leaf_vector":"1"}},{"base_weights":[-2.6439137E-3,5.5495286E-1,-5.1280554E-2,-5.0154347E-2,1.2449979E0,-4.7254667E-2,1.7707434E0,-3.9870158E-2,2.0103967E0,2.121638E0,-2.9799322E-2,2.2290985E-1,-2.7969662E-2],"categories":[],"categories_nodes":[],"categories_segments":[],"categories_sizes":[],"default_left":[0,0,0,0,0,0,0,0,0,0,0,0,0],"id":68,"left_children":[1,3,-1,-1,5,-1,7,-1,9,11,-1,-1,-1],"loss_changes":[4.2825363E1,5.306494E1,0E0,0E0,4.0387184E1,0E0,1.8346054E1,0E0,8.4780655E0,8.1770935E0,0E0,0E0,0E0],"parents":[2147483647,0,0,1,1,4,4,6,6,8,8,9,9],"right_children":[2,4,-1,-1,6,-1,8,-1,10,12,-1,-1,-1],"split_conditions":[7.503248E1,5.9844994E1,-5.1280554E-2,-5.0154347E-2,6.4988956E0,-4.7254667E-2,2.4882444E1,-3.9870158E-2,7.782051E0,7.131343E1,-2.9799322E-2,2.2290985E-1,-2.7969662E-2],"split_indices":[6,6,0,0,5,0,3,0,5,4,0,0,0],"split_type":[0,0,0,0,0,0,0,0,0,0,0,0,0],"sum_hessian":[1.485469E2,7.093191E1,7.7615E1,2.8132578E1,4.279933E1,1.005432E1,3.274501E1,3.1914022E0,2.955361E1,2.8272078E1,1.2815325E0,2.712974E1,1.1423377E0],"tree_param":{"num_deleted":"0","num_feature":"7","num_nodes":"13","size_leaf_vector":"1"}},{"base_weights":[-3.5515092E-2,1.9707212E0,-5.1505513E-2,-3.624081E-2,2.1869011E-1],"categories":[],"categories_nodes":[],"categories_segments":[],"categories_sizes":[],"default_left":[0,0,0,0,0],"id":69,"left_children":[1,3,-1,-1,-1],"loss_changes":[1.4296175E2,1.525312E1,0E0,0E0,0E0],"parents":[2147483647,0,0,1,1],"right_children":[2,4,-1,-1,-1],"split_conditions":[2.0746193E1,2.6E1,-5.1505513E-2,-3.624081E-2,2.1869011E-1],"split_indices":[4,2,0,0,0],"split_type":[0,0,0,0,0],"sum_hessian":[1.4654292E2,2.7670233E1,1.1887268E2,2.289059E0,2.5381174E1],"tree_param":{"num_deleted":"0","num_feature":"7","num_nodes":"5","size_leaf_vector":"1"}},{"base_weights":[-3.289377E-2,-2.7510434E-1,2.2071211E0,-5.043872E-1,4.39738E-1,2.295988E-1,6.259047E-2,-5.1408835E-2,-1.1939361E-1,-4.930053E-2,1.7194304E0,-3.3227347E-2,2.2847118E-2,2.2479384E-1,-3.7871096E-2],"categories":[],"categories_nodes":[],"categories_segments":[],"categories_sizes":[],"default_left":[0,0,0,0,0,0,0,0,0,0,0,0,0,0,0],"id":70,"left_children":[1,3,5,7,9,-1,-1,-1,11,-1,13,-1,-1,-1,-1],"loss_changes":[7.980482E1,2.1957882E1,5.7997894E-1,3.153839E-1,3.992765E1,0E0,0E0,0E0,3.5597935E-1,0E0,1.64045E1,0E0,0E0,0E0,0E0],"parents":[2147483647,0,0,1,1,2,2,3,3,4,4,8,8,10,10],"right_children":[2,4,6,8,10,-1,-1,-1,12,-1,14,-1,-1,-1,-1],"split_conditions":[9.495032E1,9.073892E1,6.3860216E0,9.026457E1,1.2934494E2,2.295988E-1,6.259047E-2,-5.1408835E-2,2.7864014E1,-4.930053E-2,3.1E1,-3.3227347E-2,2.2847118E-2,2.2479384E-1,-3.7871096E-2],"split_indices":[4,4,5,4,6,0,0,0,3,0,1,0,0,0,0],"split_type":[0,0,0,0,0,0,0,0,0,0,0,0,0,0,0],"sum_hessian":[1.4497153E2,1.316171E2,1.3354437E1,9.987651E1,3.1740585E1,1.2215849E1,1.1385887E0,9.709458E1,2.781925E0,1.8714611E1,1.3025974E1,1.753606E0,1.0283191E0,1.0347989E1,2.6779847E0],"tree_param":{"num_deleted":"0","num_feature":"7","num_nodes":"15","size_leaf_vector":"1"}},{"base_weights":[1.9843124E-2,-5.1376957E-2,8.305809E-1,2.1810267E0,-5.0261963E-2,-3.2435417E-2,2.340716E-1],"categories":[],"categories_nodes":[],"categories_segments":[],"categories_sizes":[],"default_left":[0,0,0,0,0,0,0],"id":71,"left_children":[1,-1,3,5,-1,-1,-1],"loss_changes":[6.491159E1,0E0,1.0830585E2,1.266951E1,0E0,0E0,0E0],"parents":[2147483647,0,0,2,2,3,3],"right_children":[2,-1,4,6,-1,-1,-1],"split_conditions":[8E1,-5.1376957E-2,6.9961E1,1.0998255E2,-5.0261963E-2,-3.2435417E-2,2.340716E-1],"split_indices":[0,0,4,6,0,0,0],"split_type":[0,0,0,0,0,0,0],"sum_hessian":[1.4805661E2,8.9509445E1,5.8547176E1,2.8769552E1,2.9777624E1,1.6620675E0,2.7107483E1],"tree_param":{"num_deleted":"0","num_feature":"7","num_nodes":"7","size_leaf_vector":"1"}},{"base_weights":[1.8391797E-2,-5.1463373E-2,1.4279454E0,2.2225094E0,-4.7923647E-2,1.8061057E-2,2.2938061E-1],"categories":[],"categories_nodes":[],"categories_segments":[],"categories_sizes":[],"default_left":[0,0,0,0,0,0,0],"id":72,"left_children":[1,-1,3,5,-1,-1,-1],"loss_changes":[1.1297722E2,0E0,6.358455E1,3.8513489E0,0E0,0E0,0E0],"parents":[2147483647,0,0,2,2,3,3],"right_children":[2,-1,4,6,-1,-1,-1],"split_conditions":[1E2,-5.1463373E-2,2.6E1,7.51464E1,-4.7923647E-2,1.8061057E-2,2.2938061E-1],"split_indices":[0,0,2,4,0,0,0],"split_type":[0,0,0,0,0,0,0],"sum_hessian":[1.4839194E2,1.0813526E2,4.025667E1,2.8300762E1,1.195591E1,1.0740414E0,2.722672E1],"tree_param":{"num_deleted":"0","num_feature":"7","num_nodes":"7","size_leaf_vector":"1"}},{"base_weights":[2.790314E-2,-5.148979E-2,1.7442503E0,2.1518348E-1,-4.4056524E-2],"categories":[],"categories_nodes":[],"categories_segments":[],"categories_sizes":[],"default_left":[0,0,0,0,0],"id":73,"left_children":[1,-1,3,-1,-1],"loss_changes":[1.4176274E2,0E0,3.3501755E1,0E0,0E0],"parents":[2147483647,0,0,2,2],"right_children":[2,-1,4,-1,-1],"split_conditions":[1.2E2,-5.148979E-2,8.4134186E1,2.1518348E-1,-4.4056524E-2],"split_indices":[1,0,4,0,0],"split_type":[0,0,0,0,0],"sum_hessian":[1.5020154E2,1.1464473E2,3.555681E1,2.9979187E1,5.577621E0],"tree_param":{"num_deleted":"0","num_feature":"7","num_nodes":"5","size_leaf_vector":"1"}},{"base_weights":[-1.5180015E-2,-5.1426865E-2,1.0903306E0,-4.7146868E-2,1.5169839E0,1.931016E0,-4.475234E-2,2.0796165E0,-3.3075433E-2,1.2606414E-2,2.1678853E0,2.2302656E-2,2.2345917E-1],"categories":[],"categories_nodes":[],"categories_segments":[],"categories_sizes":[],"default_left":[0,0,0,0,0,0,0,0,0,0,0,0,0],"id":74,"left_children":[1,-1,3,-1,5,7,-1,9,-1,-1,11,-1,-1],"loss_changes":[8.233121E1,0E0,3.1644966E1,0E0,3.0710365E1,1.0937332E1,0E0,4.6847076E0,0E0,0E0,3.0625305E0,0E0,0E0],"parents":[2147483647,0,0,2,2,4,4,5,5,7,7,10,10],"right_children":[2,-1,4,-1,6,8,-1,10,-1,-1,12,-1,-1],"split_conditions":[1.4924335E2,-5.1426865E-2,3.5E1,-4.7146868E-2,1.9979364E2,8.9895935E1,-4.475234E-2,6.002996E0,-3.3075433E-2,1.2606414E-2,3.6E1,2.2302656E-2,2.2345917E-1],"split_indices":[6,0,2,0,6,4,0,5,0,0,1,0,0],"split_type":[0,0,0,0,0,0,0,0,0,0,0,0,0],"sum_hessian":[1.4720264E2,1.0178574E2,4.54169E1,9.722362E0,3.569454E1,2.9495277E1,6.199263E0,2.7752447E1,1.7428287E0,1.3047222E0,2.6447725E1,1.0210769E0,2.542665E1],"tree_param":{"num_deleted":"0","num_feature":"7","num_nodes":"13","size_leaf_vector":"1"}},{"base_weights":[-2.2762353E-3,1.7294836E0,-5.1490515E-2,2.1574746E-1,-4.3971352E-2],"categories":[],"categories_nodes":[],"categories_segments":[],"categories_sizes":[],"default_left":[0,0,0,0,0],"id":75,"left_children":[1,3,-1,-1,-1],"loss_changes":[1.3344066E2,3.2822906E1,0E0,0E0,0E0],"parents":[2147483647,0,0,1,1],"right_children":[2,4,-1,-1,-1],"split_conditions":[3.231529E1,5.999969E0,-5.1490515E-2,2.1574746E-1,-4.3971352E-2],"split_indices":[4,5,0,0,0],"split_type":[0,0,0,0,0],"sum_hessian":[1.4831017E2,3.333256E1,1.1497761E2,2.7844198E1,5.4883633E0],"tree_param":{"num_deleted":"0","num_feature":"7","num_nodes":"5","size_leaf_vector":"1"}},{"base_weights":[4.7245238E-2,1.1966031E0,-5.1432528E-2,-4.8932813E-2,2.0187368E0,2.169059E0,-3.4864273E-2,-2.9499505E-2,2.27656E-1],"categories":[],"categories_nodes":[],"categories_segments":[],"categories_sizes":[],"default_left":[0,0,0,0,0,0,0,0,0],"id":76,"left_children":[1,3,-1,-1,5,7,-1,-1,-1],"loss_changes":[9.855572E1,7.043745E1,0E0,0E0,1.2811813E1,9.145935E0,0E0,0E0,0E0],"parents":[2147483647,0,0,1,1,4,4,5,5],"right_children":[2,4,-1,-1,6,8,-1,-1,-1],"split_conditions":[5.521607E1,5.5E1,-5.1432528E-2,-4.8932813E-2,6.9961E1,5.964024E1,-3.4864273E-2,-2.9499505E-2,2.27656E-1],"split_indices":[6,1,0,0,4,4,0,0,0],"split_type":[0,0,0,0,0,0,0,0,0],"sum_hessian":[1.5074059E2,4.910576E1,1.0163483E2,1.6229368E1,3.2876392E1,3.099224E1,1.8841501E0,1.222686E0,2.9769554E1],"tree_param":{"num_deleted":"0","num_feature":"7","num_nodes":"9","size_leaf_vector":"1"}},{"base_weights":[-7.8142155E-3,-5.128799E-2,5.5930007E-1,1.671643E0,-5.0527286E-2,2.160751E0,-4.4904158E-2,2.203085E-1,6.1994314E-2],"categories":[],"categories_nodes":[],"categories_segments":[],"categories_sizes":[],"default_left":[0,0,0,0,0,0,0,0,0],"id":77,"left_children":[1,-1,3,5,-1,7,-1,-1,-1],"loss_changes":[4.299074E1,0E0,8.457659E1,3.707775E1,0E0,4.905548E-1,0E0,0E0,0E0],"parents":[2147483647,0,0,2,2,3,3,5,5],"right_children":[2,-1,4,6,-1,8,-1,-1,-1],"split_conditions":[6E1,-5.128799E-2,2.6E1,1E2,-5.0527286E-2,2.6105513E1,-4.4904158E-2,2.203085E-1,6.1994314E-2],"split_indices":[0,0,2,0,0,3,0,0,0],"split_type":[0,0,0,0,0,0,0,0,0],"sum_hessian":[1.4809015E2,7.838075E1,6.97094E1,3.3810986E1,3.5898415E1,2.7459026E1,6.351958E0,2.6306429E1,1.1525977E0],"tree_param":{"num_deleted":"0","num_feature":"7","num_nodes":"9","size_leaf_vector":"1"}},{"base_weights":[2.4022097E-3,1.0531955E0,-5.1422514E-2,1.9354163E0,-4.9208824E-2,2.1247163E0,-3.6189776E-2,-2.8372532E-2,2.2246483E-1],"categories":[],"categories_nodes":[],"categories_segments":[],"categories_sizes":[],"default_left":[0,0,0,0,0,0,0,0,0],"id":78,"left_children":[1,3,-1,5,-1,7,-1,-1,-1],"loss_changes":[8.18664E1,6.871372E1,0E0,1.4616989E1,0E0,7.7468414E0,0E0,0E0,0E0],"parents":[2147483647,0,0,1,1,3,3,5,5],"right_children":[2,4,-1,6,-1,8,-1,-1,-1],"split_conditions":[5.520522E1,4.1E1,-5.1422514E-2,4.1E1,-4.9208824E-2,2.5E1,-3.6189776E-2,-2.8372532E-2,2.2246483E-1],"split_indices":[4,1,0,0,0,2,0,0,0],"split_type":[0,0,0,0,0,0,0,0,0],"sum_hessian":[1.4880574E2,4.870457E1,1.0010117E2,3.0843298E1,1.7861275E1,2.8564682E1,2.278615E0,1.0647273E0,2.7499954E1],"tree_param":{"num_deleted":"0","num_feature":"7","num_nodes":"9","size_leaf_vector":"1"}},{"base_weights":[-7.410238E-3,-2.1126097E-1,1.826483E0,1.9525365E0,-2.93968E-1,-3.5906926E-2,2.2478104E-1,2.5789616E-1,-2.661552E-2,2.2955227E-1,-5.0285476E-1,1.9587407E0,-3.6219072E-1,-2.6812518E-1,-5.1334392E-2,2.2727035E-1,-2.7219085E-2,4.71998E-1,-4.9872424E-2,2.3371091E-2,-4.1645672E-2,-3.6341812E-2,1.4853509E-1],"categories":[],"categories_nodes":[],"categories_segments":[],"categories_sizes":[],"default_left":[0,0,0,0,0,0,0,0,0,0,0,0,0,0,0,0,0,0,0,0,0,0,0],"id":79,"left_children":[1,3,5,7,9,-1,-1,-1,-1,11,13,15,17,19,-1,-1,-1,21,-1,-1,-1,-1,-1],"loss_changes":[5.473431E1,2.4148853E1,1.4294552E1,7.6087627E0,1.4085835E1,0E0,0E0,0E0,0E0,3.86939E1,8.79612E-2,7.3571815E0,3.4815443E0,5.449132E-1,0E0,0E0,0E0,4.368435E0,0E0,0E0,0E0,0E0,0E0],"parents":[2147483647,0,0,1,1,2,2,3,3,4,4,9,9,10,10,11,11,12,12,13,13,17,17],"right_children":[2,4,6,8,10,-1,-1,-1,-1,12,14,16,18,20,-1,-1,-1,22,-1,-1,-1,-1,-1],"split_conditions":[7.8398495E0,4.672437E0,2.3982897E1,7.301027E1,6.1623135E1,-3.5906926E-2,2.2478104E-1,2.5789616E-1,-2.661552E-2,6.1946262E1,6.358337E1,5.9E1,7.1737595E1,3.9E1,-5.1334392E-2,2.2727035E-1,-2.7219085E-2,2.691642E1,-4.9872424E-2,2.3371091E-2,-4.1645672E-2,-3.6341812E-2,1.4853509E-1],"split_indices":[5,5,3,6,4,0,0,0,0,6,4,1,6,1,0,0,0,3,0,0,0,0,0],"split_type":[0,0,0,0,0,0,0,0,0,0,0,0,0,0,0,0,0,0,0,0,0,0,0],"sum_hessian":[1.4437871E2,1.3073172E2,1.3646991E1,3.9806733E0,1.2675105E2,2.2295265E0,1.1417464E1,2.9775991E0,1.0030744E0,3.612193E1,9.062912E1,8.620634E0,2.7501295E1,5.0128174E0,8.56163E1,7.540696E0,1.0799383E0,3.522515E0,2.3978779E1,1.0123227E0,4.000495E0,2.2823217E0,1.2401934E0],"tree_param":{"num_deleted":"0","num_feature":"7","num_nodes":"23","size_leaf_vector":"1"}},{"base_weights":[1.3233412E-3,9.7524184E-1,-5.1413186E-2,-4.8218127E-2,1.449803E0,1.8319235E0,-4.5046132E-2,-4.2289656E-2,2.1868598E-1],"categories":[],"categories_nodes":[],"categories_segments":[],"categories_sizes":[],"default_left":[0,0,0,0,0,0,0,0,0],"id":80,"left_children":[1,3,-1,-1,5,7,-1,-1,-1],"loss_changes":[7.578667E1,3.6835102E1,0E0,0E0,2.9625725E1,2.7511337E1,0E0,0E0,0E0],"parents":[2147483647,0,0,1,1,4,4,5,5],"right_children":[2,4,-1,-1,6,8,-1,-1,-1],"split_conditions":[6.0951973E1,2.7061796E1,-5.1413186E-2,-4.8218127E-2,2.6E1,6.9961E1,-4.5046132E-2,-4.2289656E-2,2.1868598E-1],"split_indices":[6,3,0,0,2,4,0,0,0],"split_type":[0,0,0,0,0,0,0,0,0],"sum_hessian":[1.4896725E2,5.124715E1,9.772011E1,1.2584102E1,3.8663048E1,3.2219963E1,6.443086E0,4.355992E0,2.7863972E1],"tree_param":{"num_deleted":"0","num_feature":"7","num_nodes":"9","size_leaf_vector":"1"}},{"base_weights":[1.274938E-2,2.1578144E-1,-5.150972E-2],"categories":[],"categories_nodes":[],"categories_segments":[],"categories_sizes":[],"default_left":[0,0,0],"id":81,"left_children":[1,-1,-1],"loss_changes":[1.7115561E2,0E0,0E0],"parents":[2147483647,0,0],"right_children":[2,-1,-1],"split_conditions":[3.0920141E1,2.1578144E-1,-5.150972E-2],"split_indices":[6,0,0],"split_type":[0,0,0],"sum_hessian":[1.4918048E2,2.8850355E1,1.2033013E2],"tree_param":{"num_deleted":"0","num_feature":"7","num_nodes":"3","size_leaf_vector":"1"}},{"base_weights":[3.3829693E-2,2.1616314E-1,-4.4345522E-1,6.5293545E-1,-5.149096E-2,2.4100576E-1,-4.307379E-2],"categories":[],"categories_nodes":[],"categories_segments":[],"categories_sizes":[],"default_left":[0,0,0,0,0,0,0],"id":82,"left_children":[1,-1,3,5,-1,-1,-1],"loss_changes":[1.5344447E2,0E0,1.0009005E1,1.62624E1,0E0,0E0,0E0],"parents":[2147483647,0,0,2,2,3,3],"right_children":[2,-1,4,6,-1,-1,-1],"split_conditions":[1.5E1,2.1616314E-1,1.6E1,2.5E1,-5.149096E-2,2.4100576E-1,-4.307379E-2],"split_indices":[2,0,2,1,0,0,0],"split_type":[0,0,0,0,0,0,0],"sum_hessian":[1.4914842E2,2.6679323E1,1.2246911E2,6.9953394E0,1.1547377E2,2.2015944E0,4.7937455E0],"tree_param":{"num_deleted":"0","num_feature":"7","num_nodes":"7","size_leaf_vector":"1"}},{"base_weights":[-1.5322051E-2,-5.139929E-2,8.967307E-1,-4.949787E-2,1.7793326E0,2.2571431E-1,-4.4056382E-2],"categories":[],"categories_nodes":[],"categories_segments":[],"categories_sizes":[],"default_left":[0,0,0,0,0,0,0],"id":83,"left_children":[1,-1,3,-1,5,-1,-1],"loss_changes":[6.768637E1,0E0,6.5506134E1,0E0,3.537417E1,0E0,0E0],"parents":[2147483647,0,0,2,2,4,4],"right_children":[2,-1,4,-1,6,-1,-1],"split_conditions":[8.9996155E1,-5.139929E-2,4.1E1,-4.949787E-2,7.1E1,2.2571431E-1,-4.4056382E-2],"split_indices":[4,0,1,0,1,0,0],"split_type":[0,0,0,0,0,0,0],"sum_hessian":[1.4680862E2,9.519602E1,5.161261E1,2.0199966E1,3.1412643E1,2.5835117E1,5.5775275E0],"tree_param":{"num_deleted":"0","num_feature":"7","num_nodes":"7","size_leaf_vector":"1"}},{"base_weights":[-8.29362E-3,8.029856E-1,-4.135722E-1,-3.4627768E-1,1.5471846E0,1.0684187E0,-4.6238992E-1,4.2012278E-2,-4.3789464E-1,-4.2945206E-2,1.915789E0,-3.0620782E-2,2.1008854E-1,-1.6259451E-1,-5.129957E-2,-4.1436692E-4,-4.8821013E-2,-4.0107053E-2,2.286453E0,-4.069436E-1,1.0167273E-1,2.3420714E-1,6.410808E-2,2.0783322E-2,-4.775205E-2],"categories":[],"categories_nodes":[],"categories_segments":[],"categories_sizes":[],"default_left":[0,0,0,0,0,0,0,0,0,0,0,0,0,0,0,0,0,0,0,0,0,0,0,0,0],"id":84,"left_children":[1,3,5,7,9,11,13,-1,15,-1,17,-1,-1,19,-1,-1,-1,-1,21,23,-1,-1,-1,-1,-1],"loss_changes":[4.867116E1,4.271588E1,7.634861E0,1.60236E0,2.2765663E1,5.539286E0,1.3768711E0,0E0,4.0245438E-1,0E0,2.2872803E1,0E0,0E0,4.841425E0,0E0,0E0,0E0,0E0,5.291519E-1,6.8248105E-1,0E0,0E0,0E0,0E0,0E0],"parents":[2147483647,0,0,1,1,2,2,3,3,4,4,5,5,6,6,8,8,10,10,13,13,18,18,19,19],"right_children":[2,4,6,8,10,12,14,-1,16,-1,18,-1,-1,20,-1,-1,-1,-1,22,24,-1,-1,-1,-1,-1],"split_conditions":[5.964024E1,1.00196175E2,5.4983406E0,4.749104E0,5.4E1,5.4E1,6.665953E1,4.2012278E-2,1.8E1,-4.2945206E-2,2.4968817E1,-3.0620782E-2,2.1008854E-1,1.6449704E2,-5.129957E-2,-4.1436692E-4,-4.8821013E-2,-4.0107053E-2,3.9E1,5.9190454E0,1.0167273E-1,2.3420714E-1,6.410808E-2,2.0783322E-2,-4.775205E-2],"split_indices":[4,6,5,5,1,1,4,0,2,0,4,0,0,6,0,0,0,0,0,5,0,0,0,0,0],"split_type":[0,0,0,0,0,0,0,0,0,0,0,0,0,0,0,0,0,0,0,0,0,0,0,0,0],"sum_hessian":[1.4601927E2,4.8317287E1,9.770199E1,1.9200594E1,2.9116695E1,2.4496791E0,9.525231E1,1.6673253E0,1.7533268E1,4.550361E0,2.4566336E1,1.3524492E0,1.09723E0,1.4365003E1,8.088731E1,1.9349701E0,1.5598298E1,3.376882E0,2.1189453E1,1.24420185E1,1.9229841E0,2.0087027E1,1.1024268E0,1.0809929E0,1.1361025E1],"tree_param":{"num_deleted":"0","num_feature":"7","num_nodes":"25","size_leaf_vector":"1"}},{"base_weights":[-2.062282E-2,7.5469935E-1,-5.137329E-2,1.6206962E0,-4.982516E-2,-4.337868E-2,1.9851886E0,2.15973E-1,-3.425511E-2],"categories":[],"categories_nodes":[],"categories_segments":[],"categories_sizes":[],"default_left":[0,0,0,0,0,0,0,0,0],"id":85,"left_children":[1,3,-1,5,-1,-1,7,-1,-1],"loss_changes":[5.726204E1,6.3997463E1,0E0,2.6824348E1,0E0,0E0,1.277652E1,0E0,0E0],"parents":[2147483647,0,0,1,1,3,3,6,6],"right_children":[2,4,-1,6,-1,-1,8,-1,-1],"split_conditions":[3.1E1,2.497256E1,-5.137329E-2,3.5E1,-4.982516E-2,-4.337868E-2,4.1E1,2.15973E-1,-3.425511E-2],"split_indices":[1,3,0,2,0,0,0,0,0],"split_type":[0,0,0,0,0,0,0,0,0],"sum_hessian":[1.4776135E2,5.7236816E1,9.0524536E1,3.3671043E1,2.3565773E1,5.0449243E0,2.862612E1,2.6696507E1,1.9296131E0],"tree_param":{"num_deleted":"0","num_feature":"7","num_nodes":"9","size_leaf_vector":"1"}},{"base_weights":[8.795253E-3,-5.1474582E-2,1.6041483E0,-4.3422524E-2,1.937952E0,-3.8262825E-2,2.1718466E0,2.2325556E-1,5.3237833E-2],"categories":[],"categories_nodes":[],"categories_segments":[],"categories_sizes":[],"default_left":[0,0,0,0,0,0,0,0,0],"id":86,"left_children":[1,-1,3,-1,5,-1,7,-1,-1],"loss_changes":[1.2505767E2,0E0,2.6012695E1,0E0,1.8184044E1,0E0,1.717102E0,0E0,0E0],"parents":[2147483647,0,0,2,2,4,4,6,6],"right_children":[2,-1,4,-1,6,-1,8,-1,-1],"split_conditions":[1.8226881E2,-5.1474582E-2,5.7E1,-4.3422524E-2,7.995151E1,-3.8262825E-2,8.485936E1,2.2325556E-1,5.3237833E-2],"split_indices":[6,0,0,0,4,0,4,0,0],"split_type":[0,0,0,0,0,0,0,0,0],"sum_hessian":[1.4773929E2,1.1174553E2,3.5993767E1,5.0225725E0,3.0971193E1,2.7775817E0,2.8193613E1,2.6838053E1,1.3555592E0],"tree_param":{"num_deleted":"0","num_feature":"7","num_nodes":"9","size_leaf_vector":"1"}},{"base_weights":[1.1616511E-3,9.909171E-1,-5.1415272E-2,-4.8989795E-2,1.7007401E0,2.1569216E-1,-4.4514198E-2],"categories":[],"categories_nodes":[],"categories_segments":[],"categories_sizes":[],"default_left":[0,0,0,0,0,0,0],"id":87,"left_children":[1,3,-1,-1,5,-1,-1],"loss_changes":[7.693635E1,5.5120033E1,0E0,0E0,3.535476E1,0E0,0E0],"parents":[2147483647,0,0,1,1,4,4],"right_children":[2,4,-1,-1,6,-1,-1],"split_conditions":[5.9844994E1,6.9E1,-5.1415272E-2,-4.8989795E-2,2.7022692E1,2.1569216E-1,-4.4514198E-2],"split_indices":[6,0,0,0,3,0,0],"split_type":[0,0,0,0,0,0,0],"sum_hessian":[1.4884628E2,5.0646835E1,9.819944E1,1.6511269E1,3.4135567E1,2.8146837E1,5.9887295E0],"tree_param":{"num_deleted":"0","num_feature":"7","num_nodes":"7","size_leaf_vector":"1"}},{"base_weights":[-1.9352298E-2,-5.1336754E-2,1.4169645E0,-4.427742E-2,1.7767678E-1],"categories":[],"categories_nodes":[],"categories_segments":[],"categories_sizes":[],"default_left":[0,0,0,0,0],"id":88,"left_children":[1,-1,3,-1,-1],"loss_changes":[1.036568E2,0E0,2.5805946E1,0E0,0E0],"parents":[2147483647,0,0,2,2],"right_children":[2,-1,4,-1,-1],"split_conditions":[1.2E2,-5.1336754E-2,8.4134186E1,-4.427742E-2,1.7767678E-1],"split_indices":[1,0,4,0,0],"split_type":[0,0,0,0,0],"sum_hessian":[1.4406035E2,1.0767021E2,3.639014E1,5.861715E0,3.0528427E1],"tree_param":{"num_deleted":"0","num_feature":"7","num_nodes":"5","size_leaf_vector":"1"}},{"base_weights":[-9.309091E-3,-5.124755E-2,8.209555E-1,-4.9657393E-2,1.7725556E-1],"categories":[],"categories_nodes":[],"categories_segments":[],"categories_sizes":[],"default_left":[0,0,0,0,0],"id":89,"left_children":[1,-1,3,-1,-1],"loss_changes":[6.132657E1,0E0,7.033627E1,0E0,0E0],"parents":[2147483647,0,0,2,2],"right_children":[2,-1,4,-1,-1],"split_conditions":[7E1,-5.124755E-2,6.9E1,-4.9657393E-2,1.7725556E-1],"split_indices":[1,0,0,0,0],"split_type":[0,0,0,0,0],"sum_hessian":[1.4479105E2,9.039288E1,5.4398167E1,2.3013372E1,3.1384792E1],"tree_param":{"num_deleted":"0","num_feature":"7","num_nodes":"5","size_leaf_vector":"1"}},{"base_weights":[-3.2374095E-3,5.073026E-1,-5.1115453E-2,-4.992297E-2,1.0826054E0,-4.6893157E-2,1.4861829E0,-3.92555E-2,1.6618718E0,-2.9221788E-2,1.7442116E0,1.7894523E-1,1.8245773E-2],"categories":[],"categories_nodes":[],"categories_segments":[],"categories_sizes":[],"default_left":[0,0,0,0,0,0,0,0,0,0,0,0,0],"id":90,"left_children":[1,3,-1,-1,5,-1,7,-1,9,-1,11,-1,-1],"loss_changes":[3.823795E1,4.3126286E1,0E0,0E0,3.0196487E1,0E0,1.3071877E1,0E0,6.0767746E0,0E0,2.0294418E0,0E0,0E0],"parents":[2147483647,0,0,1,1,4,4,6,6,8,8,10,10],"right_children":[2,4,-1,-1,6,-1,8,-1,10,-1,12,-1,-1],"split_conditions":[7.503248E1,5.9844994E1,-5.1115453E-2,-4.992297E-2,6.4988956E0,-4.6893157E-2,2.4882444E1,-3.92555E-2,5.4E1,-2.9221788E-2,7.762648E0,1.7894523E-1,1.8245773E-2],"split_indices":[6,6,0,0,5,0,3,0,1,0,5,0,0],"split_type":[0,0,0,0,0,0,0,0,0,0,0,0,0],"sum_hessian":[1.4545923E2,7.2542915E1,7.291631E1,2.6431463E1,4.6111454E1,9.484967E0,3.6626488E1,3.0266347E0,3.3599854E1,1.2554951E0,3.2344357E1,3.1292097E1,1.0522604E0],"tree_param":{"num_deleted":"0","num_feature":"7","num_nodes":"13","size_leaf_vector":"1"}},{"base_weights":[-3.4326103E-2,1.6391473E0,-5.1353168E-2,-3.562967E-2,1.7956029E-1],"categories":[],"categories_nodes":[],"categories_segments":[],"categories_sizes":[],"default_left":[0,0,0,0,0],"id":91,"left_children":[1,3,-1,-1,-1],"loss_changes":[1.1624413E2,1.0715332E1,0E0,0E0,0E0],"parents":[2147483647,0,0,1,1],"right_children":[2,4,-1,-1,-1],"split_conditions":[2.0746193E1,2.6E1,-5.1353168E-2,-3.562967E-2,1.7956029E-1],"split_indices":[4,2,0,0,0],"split_type":[0,0,0,0,0],"sum_hessian":[1.429044E2,3.127296E1,1.1163144E2,2.1808589E0,2.9092102E1],"tree_param":{"num_deleted":"0","num_feature":"7","num_nodes":"5","size_leaf_vector":"1"}},{"base_weights":[-3.0531872E-2,-2.6859623E-1,1.810574E0,-5.0222325E-1,4.0787712E-1,5.6568503E-2,1.8745092E-1,-5.1251054E-2,-1.1155161E-1,-4.902465E-2,1.4539324E0,2.3695458E-2,-3.281376E-2,1.8388028E-1,-3.72515E-2],"categories":[],"categories_nodes":[],"categories_segments":[],"categories_sizes":[],"default_left":[0,0,0,0,0,0,0,0,0,0,0,0,0,0,0],"id":92,"left_children":[1,3,5,7,9,-1,-1,-1,11,-1,13,-1,-1,-1,-1],"loss_changes":[6.295327E1,2.0287731E1,2.4872589E-1,3.2422638E-1,3.1877447E1,0E0,0E0,0E0,3.5801998E-1,0E0,1.1634155E1,0E0,0E0,0E0,0E0],"parents":[2147483647,0,0,1,1,2,2,3,3,4,4,8,8,10,10],"right_children":[2,4,6,8,10,-1,-1,-1,12,-1,14,-1,-1,-1,-1],"split_conditions":[9.495032E1,9.073892E1,1.3311203E2,9.026457E1,1.2934494E2,5.6568503E-2,1.8745092E-1,-5.1251054E-2,2.3E1,-4.902465E-2,3.1E1,2.3695458E-2,-3.281376E-2,1.8388028E-1,-3.72515E-2],"split_indices":[4,4,6,4,6,0,0,0,1,0,1,0,0,0,0],"split_type":[0,0,0,0,0,0,0,0,0,0,0,0,0,0,0],"sum_hessian":[1.4152045E2,1.2607272E2,1.5447732E1,9.390073E1,3.2171993E1,1.2356673E0,1.4212065E1,9.118768E1,2.7130425E0,1.7595858E1,1.4576138E1,1.0037981E0,1.7092444E0,1.2033636E1,2.5425014E0],"tree_param":{"num_deleted":"0","num_feature":"7","num_nodes":"15","size_leaf_vector":"1"}},{"base_weights":[1.9017057E-2,-5.1216986E-2,7.4810165E-1,1.789337E0,-5.003458E-2,-3.179207E-2,1.9021124E-1],"categories":[],"categories_nodes":[],"categories_segments":[],"categories_sizes":[],"default_left":[0,0,0,0,0,0,0],"id":93,"left_children":[1,-1,3,5,-1,-1,-1],"loss_changes":[5.6965023E1,0E0,8.147228E1,8.6885605E0,0E0,0E0,0E0],"parents":[2147483647,0,0,2,2,3,3],"right_children":[2,-1,4,6,-1,-1,-1],"split_conditions":[8E1,-5.1216986E-2,6.9961E1,1.0998255E2,-5.003458E-2,-3.179207E-2,1.9021124E-1],"split_indices":[0,0,4,6,0,0,0],"split_type":[0,0,0,0,0,0,0],"sum_hessian":[1.4510059E2,8.411483E1,6.098576E1,3.30162E1,2.796956E1,1.5847831E0,3.1431417E1],"tree_param":{"num_deleted":"0","num_feature":"7","num_nodes":"7","size_leaf_vector":"1"}},{"base_weights":[1.7396754E-2,-5.1309288E-2,1.2294487E0,1.8128023E0,-4.757228E-2,1.7517596E-2,1.8619135E-1],"categories":[],"categories_nodes":[],"categories_segments":[],"categories_sizes":[],"default_left":[0,0,0,0,0,0,0],"id":94,"left_children":[1,-1,3,5,-1,-1,-1],"loss_changes":[9.48067E1,0E0,4.5509537E1,2.3802338E0,0E0,0E0,0E0],"parents":[2147483647,0,0,2,2,3,3],"right_children":[2,-1,4,6,-1,-1,-1],"split_conditions":[1E2,-5.1309288E-2,2.6E1,7.51464E1,-4.757228E-2,1.7517596E-2,1.8619135E-1],"split_indices":[0,0,2,4,0,0,0],"split_type":[0,0,0,0,0,0,0],"sum_hessian":[1.4546759E2,1.0158336E2,4.3884224E1,3.265094E1,1.1233284E1,1.0836374E0,3.1567305E1],"tree_param":{"num_deleted":"0","num_feature":"7","num_nodes":"7","size_leaf_vector":"1"}},{"base_weights":[2.6108323E-2,-5.1336754E-2,1.4720637E0,1.7694075E-1,-4.3566786E-2],"categories":[],"categories_nodes":[],"categories_segments":[],"categories_sizes":[],"default_left":[0,0,0,0,0],"id":95,"left_children":[1,-1,3,-1,-1],"loss_changes":[1.1635738E2,0E0,2.3759361E1,0E0,0E0],"parents":[2147483647,0,0,2,2],"right_children":[2,-1,4,-1,-1],"split_conditions":[1.2E2,-5.1336754E-2,8.4134186E1,1.7694075E-1,-4.3566786E-2],"split_indices":[1,0,4,0,0],"split_type":[0,0,0,0,0],"sum_hessian":[1.4719626E2,1.0767021E2,3.952604E1,3.4258873E1,5.267166E0],"tree_param":{"num_deleted":"0","num_feature":"7","num_nodes":"5","size_leaf_vector":"1"}},{"base_weights":[-1.4276509E-2,-5.1269323E-2,9.576063E-1,-4.679255E-2,1.2940773E0,1.6018326E0,-4.4289473E-2,1.7094012E0,-3.245252E-2,1.1673338E-2,1.7732033E0,1.379697E-2,1.8310915E-1],"categories":[],"categories_nodes":[],"categories_segments":[],"categories_sizes":[],"default_left":[0,0,0,0,0,0,0,0,0,0,0,0,0],"id":96,"left_children":[1,-1,3,-1,5,7,-1,9,-1,-1,11,-1,-1],"loss_changes":[7.0769875E1,0E0,2.4362892E1,0E0,2.227253E1,7.70018E0,0E0,3.1279297E0,0E0,0E0,2.7276993E0,0E0,0E0],"parents":[2147483647,0,0,2,2,4,4,5,5,7,7,10,10],"right_children":[2,-1,4,-1,6,8,-1,10,-1,-1,12,-1,-1],"split_conditions":[1.4924335E2,-5.1269323E-2,3.5E1,-4.679255E-2,1.9979364E2,8.9895935E1,-4.4289473E-2,6.002996E0,-3.245252E-2,1.1673338E-2,2.310694E1,1.379697E-2,1.8310915E-1],"split_indices":[6,0,2,0,6,4,0,5,0,0,3,0,0],"split_type":[0,0,0,0,0,0,0,0,0,0,0,0,0],"sum_hessian":[1.4408368E2,9.555308E1,4.8530605E1,9.192769E0,3.9337833E1,3.3483124E1,5.85471E0,3.1818964E1,1.6641597E0,1.334554E0,3.048441E1,1.1579468E0,2.9326464E1],"tree_param":{"num_deleted":"0","num_feature":"7","num_nodes":"13","size_leaf_vector":"1"}},{"base_weights":[-2.4938933E-3,1.4574682E0,-5.1337432E-2,1.7699759E0,-4.362816E-2,1.8129617E-1,2.0278305E-2],"categories":[],"categories_nodes":[],"categories_segments":[],"categories_sizes":[],"default_left":[0,0,0,0,0,0,0],"id":97,"left_children":[1,3,-1,5,-1,-1,-1],"loss_changes":[1.0972918E2,2.3341446E1,0E0,1.8508759E0,0E0,0E0,0E0],"parents":[2147483647,0,0,1,1,3,3],"right_children":[2,4,-1,6,-1,-1,-1],"split_conditions":[3.231529E1,2.6E1,-5.1337432E-2,2.4677416E1,-4.362816E-2,1.8129617E-1,2.0278305E-2],"split_indices":[4,2,0,3,0,0,0],"split_type":[0,0,0,0,0,0,0],"sum_hessian":[1.4511328E2,3.7135868E1,1.0797742E2,3.193182E1,5.204049E0,3.0926725E1,1.0050963E0],"tree_param":{"num_deleted":"0","num_feature":"7","num_nodes":"7","size_leaf_vector":"1"}},{"base_weights":[4.45159E-2,1.0454684E0,-5.1276337E-2,-4.8638273E-2,1.6672933E0,1.7754178E0,-3.4192424E-2,-2.8951472E-2,1.8524055E-1],"categories":[],"categories_nodes":[],"categories_segments":[],"categories_sizes":[],"default_left":[0,0,0,0,0,0,0,0,0],"id":98,"left_children":[1,3,-1,-1,5,7,-1,-1,-1],"loss_changes":[8.371745E1,5.1924553E1,0E0,0E0,8.947746E0,6.3537827E0,0E0,0E0,0E0],"parents":[2147483647,0,0,1,1,4,4,5,5],"right_children":[2,4,-1,-1,6,8,-1,-1,-1],"split_conditions":[5.521607E1,5.5E1,-5.1276337E-2,-4.8638273E-2,6.9961E1,5.964024E1,-3.4192424E-2,-2.8951472E-2,1.8524055E-1],"split_indices":[6,1,0,0,4,4,0,0,0],"split_type":[0,0,0,0,0,0,0,0,0],"sum_hessian":[1.481213E2,5.2660168E1,9.546114E1,1.526731E1,3.7392857E1,3.559377E1,1.7990872E0,1.1801369E0,3.441363E1],"tree_param":{"num_deleted":"0","num_feature":"7","num_nodes":"9","size_leaf_vector":"1"}},{"base_weights":[-7.5639407E-3,-5.1123973E-2,5.1391745E-1,1.4193547E0,-5.031658E-2,1.7776268E0,-4.444094E-2,1.8087937E-1,5.4392822E-2],"categories":[],"categories_nodes":[],"categories_segments":[],"categories_sizes":[],"default_left":[0,0,0,0,0,0,0,0,0],"id":99,"left_children":[1,-1,3,5,-1,7,-1,-1,-1],"loss_changes":[3.8555866E1,0E0,6.713733E1,2.6444443E1,0E0,2.629242E-1,0E0,0E0,0E0],"parents":[2147483647,0,0,2,2,3,3,5,5],"right_children":[2,-1,4,6,-1,8,-1,-1,-1],"split_conditions":[6E1,-5.1123973E-2,2.6E1,1E2,-5.031658E-2,1.0901937E2,-4.444094E-2,1.8087937E-1,5.4392822E-2],"split_indices":[0,0,2,0,0,6,0,0,0],"split_type":[0,0,0,0,0,0,0,0,0],"sum_hessian":[1.4479108E2,7.366295E1,7.1128136E1,3.7420128E1,3.3708004E1,3.1425423E1,5.9947057E0,3.0196417E1,1.2290064E0],"tree_param":{"num_deleted":"0","num_feature":"7","num_nodes":"9","size_leaf_vector":"1"}},{"base_weights":[1.6951627E-3,9.2920804E-1,-5.1265027E-2,1.6091678E0,-4.893709E-2,1.745996E0,-3.5543356E-2,-2.7846014E-2,1.8184815E-1],"categories":[],"categories_nodes":[],"categories_segments":[],"categories_sizes":[],"default_left":[0,0,0,0,0,0,0,0,0],"id":100,"left_children":[1,3,-1,5,-1,7,-1,-1,-1],"loss_changes":[7.044492E1,5.1596237E1,0E0,1.02549515E1,0E0,5.4481125E0,0E0,0E0,0E0],"parents":[2147483647,0,0,1,1,3,3,5,5],"right_children":[2,4,-1,6,-1,8,-1,-1,-1],"split_conditions":[5.520522E1,4.1E1,-5.1265027E-2,4.1E1,-4.893709E-2,2.5E1,-3.5543356E-2,-2.7846014E-2,1.8184815E-1],"split_indices":[4,1,0,0,0,2,0,0,0],"split_type":[0,0,0,0,0,0,0,0,0],"sum_hessian":[1.4566556E2,5.167467E1,9.399089E1,3.484044E1,1.6834232E1,3.2675938E1,2.164501E0,1.0312918E0,3.1644646E1],"tree_param":{"num_deleted":"0","num_feature":"7","num_nodes":"9","size_leaf_vector":"1"}},{"base_weights":[-4.370541E-3,6.7372257E-1,-5.0014526E-1,1.527071E0,-4.9918916E-2,2.0206336E-2,-5.11777E-2,1.981589E0,-4.5140706E-2,-3.3580724E-2,2.139844E-1],"categories":[],"categories_nodes":[],"categories_segments":[],"categories_sizes":[],"default_left":[0,0,0,0,0,0,0,0,0,0,0],"id":101,"left_children":[1,3,5,7,-1,-1,-1,9,-1,-1,-1],"loss_changes":[4.8177235E1,6.1344475E1,7.795315E-1,3.2622932E1,0E0,0E0,0E0,1.1308998E1,0E0,0E0,0E0],"parents":[2147483647,0,0,1,1,2,2,3,3,7,7],"right_children":[2,4,6,8,-1,-1,-1,10,-1,-1,-1],"split_conditions":[6.358337E1,7.4535576E1,5.316876E0,6.1E1,-4.9918916E-2,2.0206336E-2,-5.11777E-2,2.3579435E1,-4.5140706E-2,-3.3580724E-2,2.139844E-1],"split_indices":[4,6,5,1,0,0,0,3,0,0,0],"split_type":[0,0,0,0,0,0,0,0,0,0,0],"sum_hessian":[1.4130496E2,5.952755E1,8.1777405E1,3.4283062E1,2.524449E1,1.0657611E0,8.071165E1,2.7877224E1,6.405837E0,1.7103214E0,2.6166903E1],"tree_param":{"num_deleted":"0","num_feature":"7","num_nodes":"11","size_leaf_vector":"1"}},{"base_weights":[5.1590084E-4,8.656988E-1,-5.125591E-2,-4.7881182E-2,1.2457643E0,1.5347912E0,-4.4575896E-2,-4.1775852E-2,1.7921291E-1],"categories":[],"categories_nodes":[],"categories_segments":[],"categories_sizes":[],"default_left":[0,0,0,0,0,0,0,0,0],"id":102,"left_children":[1,3,-1,-1,5,7,-1,-1,-1],"loss_changes":[6.561567E1,2.8714855E1,0E0,0E0,2.1793121E1,1.939064E1,0E0,0E0,0E0],"parents":[2147483647,0,0,1,1,4,4,5,5],"right_children":[2,4,-1,-1,6,8,-1,-1,-1],"split_conditions":[6.0951973E1,2.7061796E1,-5.125591E-2,-4.7881182E-2,2.6E1,6.9961E1,-4.4575896E-2,-4.1775852E-2,1.7921291E-1],"split_indices":[6,3,0,0,2,4,0,0,0],"split_type":[0,0,0,0,0,0,0,0,0],"sum_hessian":[1.458155E2,5.4025932E1,9.178957E1,1.1849081E1,4.217685E1,3.6101006E1,6.0758457E0,4.1313124E0,3.1969692E1],"tree_param":{"num_deleted":"0","num_feature":"7","num_nodes":"9","size_leaf_vector":"1"}},{"base_weights":[1.1950326E-2,1.7748755E-1,-5.1357824E-2],"categories":[],"categories_nodes":[],"categories_segments":[],"categories_sizes":[],"default_left":[0,0,0],"id":103,"left_children":[1,-1,-1],"loss_changes":[1.3708344E2,0E0,0E0],"parents":[2147483647,0,0],"right_children":[2,-1,-1],"split_conditions":[3.0920141E1,1.7748755E-1,-5.1357824E-2],"split_indices":[6,0,0],"split_type":[0,0,0],"sum_hessian":[1.4597968E2,3.2977352E1,1.1300232E2],"tree_param":{"num_deleted":"0","num_feature":"7","num_nodes":"3","size_leaf_vector":"1"}},{"base_weights":[3.2899283E-2,1.5751191E0,-5.1337898E-2,1.8526314E-1,-4.2551205E-2],"categories":[],"categories_nodes":[],"categories_segments":[],"categories_sizes":[],"default_left":[0,0,0,0,0],